tree
version=v4
num_class=15
num_tree_per_iteration=15
label_index=0
max_feature_idx=69
objective=multiclass num_class:15
feature_names=Destination_Port Flow_Duration Total_Fwd_Packets Total_Backward_Packets Total_Length_of_Fwd_Packets Total_Length_of_Bwd_Packets Fwd_Packet_Length_Max Fwd_Packet_Length_Min Fwd_Packet_Length_Mean Fwd_Packet_Length_Std Bwd_Packet_Length_Max Bwd_Packet_Length_Min Bwd_Packet_Length_Mean Bwd_Packet_Length_Std Flow_Bytes/s Flow_Packets/s Flow_IAT_Mean Flow_IAT_Std Flow_IAT_Max Flow_IAT_Min Fwd_IAT_Total Fwd_IAT_Mean Fwd_IAT_Std Fwd_IAT_Max Fwd_IAT_Min Bwd_IAT_Total Bwd_IAT_Mean Bwd_IAT_Std Bwd_IAT_Max Bwd_IAT_Min Fwd_PSH_Flags Fwd_URG_Flags Fwd_Header_Length Bwd_Header_Length Fwd_Packets/s Bwd_Packets/s Min_Packet_Length Max_Packet_Length Packet_Length_Mean Packet_Length_Std Packet_Length_Variance FIN_Flag_Count SYN_Flag_Count RST_Flag_Count PSH_Flag_Count ACK_Flag_Count URG_Flag_Count CWE_Flag_Count ECE_Flag_Count Down/Up_Ratio Average_Packet_Size Avg_Fwd_Segment_Size Avg_Bwd_Segment_Size Fwd_Header_Length.1 Subflow_Fwd_Packets Subflow_Fwd_Bytes Subflow_Bwd_Packets Subflow_Bwd_Bytes Init_Win_bytes_forward Init_Win_bytes_backward act_data_pkt_fwd min_seg_size_forward Active_Mean Active_Std Active_Max Active_Min Idle_Mean Idle_Std Idle_Max Idle_Min
feature_infos=[-0.44125546115673858:3.1437220870193539] [-0.43945768091675053:3.1273326834827944] [-0.011106202387109:253.04112509227889] [-0.0104130968355436:256.23669192597441] [-0.051720153447807303:109.5057469176261] [-0.0072389204631009996:244.21657292618053] [-0.28945532119534478:32.309565186739484] [-0.31067719701108532:32.610816272263378] [-0.31274747700905131:24.283388128887019] [-0.24478711800562669:20.350483912833688] [-0.44744125361832637:6.2443048355050603] [-0.5974619071614834:20.652953259794479] [-0.50549317882305389:5.8970414255152566] [-0.3993431648171139:7.5921561201828522] [-10.131330464840875:79.876888693660874] [-8.1363153811571802:11.508715243716358] [-0.28799075767636401:26.084061906249055] [-0.3629716553856065:10.176331699861009] [-0.37556653556853081:4.5299201774267273] [-0.0551172245418423:40.178803803496812] [-0.4314336957560721:3.1436212531104202] [-0.2741530035132595:12.323005756814489] [-0.33896849229681258:8.2607644832151692] [-0.36878726289740721:4.5228455151233957] [-0.11910866734030801:13.847030601721986] [-0.34429755005098711:3.8339281514449999] [-0.20324795292098299:13.302032755381006] [-0.2367154174680399:12.974482403225871] [-0.27307583946629371:6.7218558600604652] [-0.11652699511310841:14.328241995792032] [-0.22051431310057959:4.5348530258164494] [-0.010736187948924201:93.142929758434633] [-93.008108726840277:0.1824883473899129] [-115.11892490604052:3.6468238079436981] [-0.25793920287671129:11.851298002538805] [-0.18310827226538309:52.090898883489309] [-0.65664157535184942:52.483519873069518] [-0.46859547936412699:11.043845661445337] [-0.56290441836290961:8.0387994113163455] [-0.46686340983191799:6.4627896447390549] [-0.29521606065622158:11.35165102051598] [-0.19133893117756931:5.2263279294267884] [-0.22051431310057959:4.5348530258164494] [-0.015543576108689601:64.335259338483397] [-0.65159067937227289:1.5347058078905866] [-0.67923297050491793:1.4722489093199269] [-0.32353206140445889:3.09088377720273] [-0.010736187948924201:93.142929758434633] [-0.015571973103633599:64.217937787643379] [-1.0065024637349078:10.771183862302337] [-0.57855484990948336:8.2191963928680458] [-0.31274747700905131:24.283388128887019] [-0.505493178823054:5.8970414255150647] [-93.008108726840277:0.1824883473899129] [-0.011106202387109:253.04112509227889] [-0.051795825604407902:109.668570888045] [-0.0104130968355436:256.23669192597441] [-0.0072388334685910003:244.34232932099576] [-0.48756470945092728:4.0840936743820961] [-0.2353112729324161:7.5115328709921094] [-0.0085256589011179999:282.78994658298598] [-488.54069924085923:0.0026465679468865] [-0.12667834679591469:112.21457046979916] [-0.10418577869865681:162.04033586583537] [-0.14959638783915011:88.603478998941767] [-0.1021399025097577:126.90335221439864] [-0.35203431714197359:4.7262269329622448] [-0.1096157874911111:16.293748357019361] [-0.3569914004434277:4.5673375034369004] [-0.33907259583216548:4.797277554803272]
tree_sizes=6493 2577 2911 4686 8676 4676 6610 995 362 1627 3766 989 11885 1725 9361 8151 2184 4139 4443 6588 4573 5271 1314 368 1678 2678 1105 12087 2073 8583 9078 3167 3501 5124 10215 5438 5824 2194 371 1129 3780 3615 9202 2089 7588 9369 2002 3508 3898 7364 4997 6131 1206 581 1670 3509 896 7964 1637 7861

Tree=0
num_leaves=60
num_cat=0
split_feature=11 0 11 58 17 59 58 0 0 35 37 58 59 32 25 17 17 9 58 39 50 12 1 59 61 59 21 11 59 0 45 1 35 58 61 5 41 58 58 0 9 21 37 0 24 35 4 1 21 25 19 35 21 35 35 15 25 37 19
split_gain=816650 102232 135193 91687.6 39895.1 32747.4 19185.3 13476 253651 65104 27608.2 18870.6 11590.4 10657.2 7281.27 19284.6 5696.29 5649.69 4671.99 2898.33 23136.9 5803.21 2573.91 1826.03 1760.53 26997.6 716.28 705.941 667.738 633.288 5447.49 458.012 380.287 364.801 363.703 346.545 297.914 217.001 3127.12 610.328 142.431 140.28 121.196 61.7208 37.7764 35.1837 25.8296 16.8679 12.6361 9.80451 7.28302 6.42244 4.816 4.19109 3.89797 3.57397 2.61313 1.82412 0.162839
threshold=-0.37913572393933298 1.4096590594589899 -0.52468651275409983 1.5527861827111227 -0.36297163119681947 3.2022798914576773 -0.47106694932250154 -0.43685164786509206 -0.41699345873630117 -0.01171808487182305 -0.46736341160505052 -0.47148549714816984 -0.20487285180417256 0.0012091030822267501 3.485747481279891 2.2879754237201904 -0.36297163119681947 1.6488562525205048 -0.4149815406829484 -0.463348273701984 -0.55412860807881659 -0.49564451676652105 -0.43944542007242066 -0.23507485801103167 0.0026192684503257005 -0.20735520847870897 -0.27406221648991413 5.930490971180812 2.9519164897115808 2.5260667582077487 1.0000000180025095e-35 -0.43852741721878274 -0.16816643037521412 -0.41609766821806388 0.0026265483160752504 -0.006569840175801399 1.0000000180025095e-35 -0.46967178990360714 -0.41609766821806388 2.417366422673568 1.0421489306187508 1.5222782584726231 0.19721393764073528 -0.33192600943803735 1.0000000180025095e-35 -0.037902696826922343 -0.051485755184330642 -0.439433738831641 -0.2741529772691787 0.75422762396733278 -0.055108602988278139 0.033348171755359556 4.6517867613736215 0.019113014875518353 8.5292262532581127 -0.25471729564073636 -0.34375370174811609 0.21175233719783634 -0.052059108777614542
decision_type=2 2 2 2 2 2 2 2 2 2 2 2 2 2 2 2 2 2 2 2 2 2 2 2 2 2 2 2 2 2 2 2 2 2 2 2 2 2 2 2 2 2 2 2 2 2 2 2 2 2 2 2 2 2 2 2 2 2 2
left_child=1 3 -3 5 6 7 -4 13 9 28 22 -12 29 36 17 -16 23 24 33 20 -13 -21 -10 54 25 -15 47 -2 45 37 -31 -19 -30 -7 -5 42 44 -8 39 -39 -26 -6 -29 -36 49 52 -40 -24 -47 -1 55 53 -9 -45 -11 -35 58 -44 -38
right_child=27 2 4 34 41 18 12 8 10 16 11 19 -14 14 15 -17 -18 31 -20 21 -22 -23 26 -25 40 -27 -28 35 32 30 -32 -33 -34 50 43 -37 56 38 46 -41 -42 -43 57 51 -46 48 -48 -49 -50 -51 -52 -53 -54 -55 -56 -57 -58 -59 -60
leaf_value=-2.0370747100015381 -2.0074420753112046 -2.0076766403137181 -2.0111846081578584 -2.0081983773638812 -2.0096538202505938 -2.1438443081991156 -2.7552476723520063 -2.0090455556888402 -2.0100553014476077 -2.7549228818021105 -2.0116549114724394 -2.0105224329938731 -2.014006674748952 -2.741073332461943 -2.010415611679615 -2.7554368705035115 -2.0200431059757493 -2.7377793926165874 -2.018431975702073 -2.0212059222142456 -2.7357957546502072 -2.7548514211849797 -2.6315536420776686 -2.0474357347155792 -2.7533858710162575 -2.0527155276492381 -2.0747803789016026 -2.2406294110933098 -2.1114842241024734 -2.7550567352836839 -2.020230157918752 -2.0203923990834722 -2.7461184947270199 -2.5742530001383876 -2.2770030830543391 -2.0831149773499571 -2.7056740458043143 -2.0316595739017536 -2.7551906808610882 -2.4561754751187062 -2.6759189206344072 -2.7116138124711684 -2.7425816181669997 -2.5338572263218548 -2.7033621620192947 -2.4959028951735753 -2.7285080761986591 -2.7433380510322642 -2.175074372913691 -2.7056740458043143 -2.7535426490308863 -2.7361704814799026 -2.6785541449968209 -2.7056740458043143 -2.6936511835181718 -2.7056740458043143 -2.7271906504200327 -2.6966039722579525 -2.6178980173868034
leaf_weight=53.730357781052589 4062.9573677293956 1095.9429968185723 96.706399660557508 433.07093843631446 224.46773396618664 2.2409880384802845 1937.6785136926919 1537.5091380272061 137.06637235358357 415.04409819096327 86.1227234788239 116.90302700735629 55.586487954482436 12797.240542605519 120.97452507726848 304.41828706488013 28.944246497005224 2.2930421829223659 179.92341957241297 26.475831454619765 1734.1027625314891 31080.820051917806 3.7136886902153519 8.8308241516351682 78165.639266939834 143.54280656389892 5.0477700866758815 1.103853018954396 3.6626980267465115 192.16667078994215 28.517127489671111 28.156572483479977 5.1623847391456348 0.36945793405175209 0.88752001523971591 4.4376000761985761 0.30611551925539959 14.882601255550979 455.6214143447578 21.717132786288857 58.672141177579761 0.63468772172927757 3.9505563043057919 0.32340396940708105 0.29347789660096069 2.0886534936726098 119.72654977627099 15.320179628208281 1.7306640297174443 0.11261796578764816 26.747314278036356 2.0627350956201553 0.14589996635913749 0.31734386086463928 1.7753173075616349 0.47601579129696148 1.2550341859459866 2.5916768908500671 0.31346911378204823
leaf_count=9405 732447 197574 17434 78073 40433 404 493 276673 24710 5291 15526 21075 10021 200062 21809 921 5218 1 32045 4773 8508 104459 164 1592 175854 24428 910 199 647 2438 5141 5076 66 40 160 800 11 2683 5782 1605 1179 8 42 45 13 177 793 66 312 7 339 26 13 4 54 6 23 46 30
internal_value=-2.70567 -2.72723 -2.48582 -2.73527 -2.65239 -2.73775 -2.70185 -2.73879 -2.71249 -2.16642 -2.74547 -2.74866 -2.7256 -2.74888 -2.74931 -2.54306 -2.69267 -2.75027 -2.11428 -2.7506 -2.68983 -2.75422 -2.09363 -2.7391 -2.7505 -2.73341 -2.57482 -2.0086 -2.01217 -2.74001 -2.65888 -2.07487 -2.46767 -2.69492 -2.0124 -2.41096 -2.06248 -2.74705 -2.72101 -2.27612 -2.75333 -2.01175 -2.63083 -2.54869 -2.0412 -2.00966 -2.74971 -2.71891 -2.30014 -2.03811 -2.74799 -2.69867 -2.00908 -2.59557 -2.75459 -2.63844 -2.69799 -2.72147 -2.63332
internal_weight=135853 131777 4243.65 127534 3147.71 127097 2922.6 126887 35210.5 2004.89 33205.6 33044.4 2825.9 91676.9 91620.9 425.393 454.594 91195.5 209.757 32958.3 1851.01 31107.3 161.148 425.65 91165.1 12940.8 24.0816 4075.04 1550.3 2770.31 220.684 30.4496 8.82508 29.8338 436.662 12.0837 56.0111 2549.63 611.948 36.5997 78224.3 225.102 7.64609 3.591 54.1365 1541.47 575.348 19.0339 3.81932 53.843 27.5928 2.70348 1537.66 0.640748 416.819 0.845474 1.87462 6.54223 0.619585
internal_count=2038134 1304600 284405 1020195 86831 941887 46390 909053 470234 290043 180191 154341 28956 438819 429330 22730 12155 406600 32834 138815 29583 109232 25850 6937 401523 224490 1140 733534 277888 18935 7579 5077 713 789 78308 1087 9489 11356 10863 4288 177033 40441 287 235 9425 277175 6575 230 489 9412 385 75 276686 49 5345 46 64 88 41
is_linear=0
shrinkage=1


Tree=1
num_leaves=23
num_cat=0
split_feature=0 28 32 32 0 0 58 0 59 0 50 58 19 35 0 58 58 0 58 58 58 58
split_gain=1.0185e+06 262315 257114 172866 86173.1 27976.5 25416.8 14772.6 8173.48 3661.52 3273.41 1793.41 1272.9 1472.89 1062.47 883.954 3501.88 759.394 135.085 1420.65 99.2702 372.632
threshold=1.0000000180025095e-35 -0.27009308400742044 0.0012091030822267501 0.0012091030822267501 -0.34207392702313572 0.029131974721796006 -0.47106694932250154 2.5260667582077487 -0.20487285180417256 -0.17133726511967506 -0.55412860807881659 -0.47106694932250154 -0.037986197609860592 -0.18265722210597621 0.029131974721796006 -0.46953227396171765 -0.40702913199525059 2.417366422673568 -0.46939275801982833 -0.4103077566296523 -0.39237995809685983 -0.38924084940434761
decision_type=2 2 2 2 2 2 2 2 2 2 2 2 2 2 2 2 2 2 2 2 2 2
left_child=3 2 6 4 -1 -3 -2 8 10 11 -8 -6 -4 -14 -10 -12 17 -17 -13 -20 -21 -22
right_child=1 5 12 -5 9 -7 7 -9 14 -11 15 18 13 -15 -16 16 -18 -19 19 20 21 -23
leaf_value=-2.7553894399423884 -2.75511359204615 -2.0079211522334868 -2.7554578080032677 -2.755470807993448 -2.7497527861900979 -2.7550820438483261 -2.752284317508912 -2.7548008181530173 -2.1086145911028762 -2.7526424051257496 -2.0079884064460467 -2.0090832468749431 -2.752319973631292 -2.037432436277073 -2.7543578389035264 -2.7530465081381719 -2.0220075714890093 -2.3333568319976163 -2.7491865736274717 -2.0132698657105821 -2.0613789888070699 -2.739827038899636
leaf_weight=610.96489729592577 139.32368808612227 5667.9041837397963 3728.272294673603 121964.74488523137 8.2444648174568993 127.98896296415478 15.190676090307532 74.08922151569277 6.9187848600558928 17.176893051713705 2008.9792144023813 1124.6587692000903 15.368215036578478 12.866653607692568 44.412477028090507 20.12292994139716 176.15485444525257 22.237381115555763 7.456635743379592 77.088959804736078 6.4139084815978986 2.6963727464899421
leaf_count=109245 25112 1627 256568 1582602 1486 22530 2738 13354 92 3096 570 576 2770 9 8005 3627 564 1698 1344 34 1 486
internal_value=-2.70546 -2.26684 -2.49118 -2.74818 -2.26917 -2.02443 -2.09915 -2.06054 -2.0381 -2.03038 -2.02382 -2.02023 -2.7529 -2.42146 -2.66288 -2.01884 -2.12005 -2.53154 -2.01525 -2.09289 -2.03591 -2.25612
internal_weight=135879 12059.8 6263.94 123819 1854.7 5795.89 2507.43 2368.11 2294.02 1243.74 2242.69 1226.56 3756.51 28.2349 51.3313 2227.49 218.515 42.3603 1218.31 93.6559 86.1992 9.11028
internal_count=2038134 339264 315107 1698870 116268 24157 55760 30648 17294 7023 9197 3927 259347 2779 8097 6459 5889 5325 2441 1865 521 487
is_linear=0
shrinkage=1


Tree=2
num_leaves=26
num_cat=0
split_feature=61 59 6 4 0 59 46 23 4 0 7 24 38 8 0 58 4 0 19 58 24 58 58 24 0
split_gain=428993 753263 480826 228229 1835.01 864.796 834.554 263.637 278.965 179.913 161.831 66.9738 59.7992 44.9137 156.991 137.257 6.82222 35.919 30.2131 12.8962 1.25951 1.19946 0.979916 63.6167 0.935598
threshold=0.0026119885845761006 -0.20806445324286219 -0.25945194187511361 -0.049985606298080042 -0.43367871406489961 -0.20830086816424656 1.0000000180025095e-35 -0.30390643932842454 -0.050360643519642645 -0.41795080945187651 -0.24426974674527704 -0.11412607257932918 -1.0000000180025095e-35 -0.30180499227134422 -0.41795080945187651 -0.46960203193266242 -0.050360643519642645 -0.41795080945187651 -0.055111983989675893 -0.46953227396171765 1.0000000180025095e-35 -0.46995082178738595 -0.48746007249451023 -0.11890313232406494 3.0550714107570802
decision_type=2 2 2 2 2 2 2 2 2 2 2 2 2 2 2 2 2 2 2 2 2 2 2 2 2
left_child=1 2 3 5 11 7 10 16 13 -10 -7 -5 -13 -9 15 -15 20 18 -18 -20 22 -22 23 -1 -24
right_child=-2 -3 -4 4 -6 6 -8 8 9 -11 -12 12 -14 14 -16 -17 17 -19 19 -21 21 -23 24 -25 -26
leaf_value=-2.7552526519201135 -2.7556807675580948 -2.7556785769803458 -2.755667898760108 -2.0074548041706075 -2.7499399541011909 -2.7203489545601314 -2.7508532049798053 -2.7518660340178367 -2.1548506720964844 -2.7330960297906621 -2.0588766806182197 -2.7202099269403877 -2.2436491766446465 -2.2945033257751559 -2.7510728705687733 -2.7388042947594289 -2.7386492483059306 -2.7538164673630314 -2.4800967832793317 -2.7066388235745378 -2.6541667872228096 -2.7294101367933732 -2.7556300841596659 -2.5691295858742782 -2.7246444572053448
leaf_weight=116.16824964154512 103170.49122712761 18676.613913975656 3743.5066779647022 9059.8536190511659 8.2095697894692403 0.91525609139352937 9.8570307539775968 12.606519856490197 4.1613563355058432 1.7140250438824285 9.3367651551961899 0.90970908477902424 1.08335344493389 4.2943932535126805 10.350714342668651 2.4628709368407753 2.4358993107452989 26.314999379217625 2.4418484736233954 0.51961203105747955 0.22606782894581545 1.4033926734700788 976.7083637714386 4.2409379985183469 5.8604671070352188
leaf_count=20916 1039605 284374 486342 92064 1480 165 1777 1455 87 309 125 164 11 192 1866 444 121 4744 88 76 24 253 100219 210 1023
internal_value=-2.70567 -2.54781 -2.27062 -2.09368 -2.00821 -2.74408 -2.42309 -2.74973 -2.61681 -2.31638 -2.11819 -2.00753 -2.43049 -2.6825 -2.63011 -2.45101 -2.75395 -2.72896 -2.61821 -2.52147 -2.75464 -2.70567 -2.7547 -2.74795 -2.75548
internal_weight=135853 32682.2 14005.6 10262.1 9070.06 1192.02 20.1091 1171.91 35.5899 5.87538 10.252 9061.85 1.99306 29.7145 17.108 6.75726 1136.32 31.7124 5.39736 2.96146 1104.61 1.62946 1102.98 120.409 982.569
internal_count=2038134 998529 714155 227813 93719 134094 2067 132027 4353 396 290 92239 175 3957 2502 636 127674 5029 285 164 122645 277 122368 21126 101242
is_linear=0
shrinkage=1


Tree=3
num_leaves=43
num_cat=0
split_feature=19 27 13 58 46 12 5 16 6 59 65 13 23 61 38 2 24 17 6 5 56 58 58 24 12 24 8 13 10 10 12 5 5 16 16 23 23 28 27 13 50 38
split_gain=313641 303925 689441 239931 103536 37142.7 70085.3 15065.2 51927.3 8623.21 4520.35 3353.8 2692.37 2603.31 1845.88 2376.56 653.264 16825.4 1554.63 447.926 3719.85 179.161 8760.43 4537.2 175.011 277.178 107.268 72.0203 57.4125 62.5414 28.0138 309.213 102.245 6.93424 92.5997 7.39818 235.88 5.60616 591.611 1207.29 0.67685 3.09867
threshold=0.98534944078800035 1.0000000180025095e-35 1.6960208830156527 1.4096079473470897 1.0000000180025095e-35 0.60773981969035018 -0.0057408313196714491 7.107529929231629 0.026626791178252653 -0.20652775625386346 0.55360401331172682 1.0470588364280113 -0.36833827215379461 0.0026192684503257005 0.78343025000260103 -0.0040581790110320488 1.0000000180025095e-35 -0.36297139019449809 -0.28317554412831969 -0.0023343739302118497 -0.0012481494578853998 -0.47162501309005916 -0.47483387975351626 -0.11902818746277004 1.8893343921226746 -0.11910686338065243 -0.18903959518524879 0.94224072377135559 1.039870175720677 1.0393566899863982 0.44133478110513497 -0.0057408313196714491 -0.005756465023889999 -0.28724263832834745 -0.28686677821581424 -0.368670984709913 -0.36869340469347889 0.018392238891047002 -0.10515387738800049 1.6960208830156527 0.40954621320701273 0.48533958945147299
decision_type=2 2 2 2 2 2 2 2 2 2 2 2 2 2 2 2 2 2 2 2 2 2 2 2 2 2 2 2 2 2 2 2 2 2 2 2 2 2 2 2 2 2
left_child=1 7 5 -4 13 27 -7 16 -9 26 12 -12 -8 -2 15 -14 21 18 -18 -16 -21 22 -1 -24 25 -13 -5 30 29 -29 40 32 -32 35 -35 36 -25 -23 -39 -40 -3 -42
right_child=4 2 3 9 -6 6 10 8 -10 -11 11 24 14 -15 19 -17 17 -19 -20 20 -22 37 23 33 -26 -27 -28 28 -30 -31 31 -33 -34 34 -36 -37 -38 38 39 -41 41 -43
leaf_value=-2.7556188290878154 -2.7515365309603714 -2.7554438094899649 -2.7555910346884995 -2.7056199138384005 -2.7555453643565873 -2.0088221362931638 -2.0346617816046813 -2.7555793057235429 -2.0085721915756318 -2.7543563999186658 -2.7538729217180515 -2.1047116627928268 -2.0435689396844157 -2.0081703234661159 -2.7555820572949559 -2.7536870115304919 -2.0227490769090828 -2.7556071155833988 -2.7496654221733987 -2.033210634583908 -2.7552874319410039 -2.7555807344146697 -2.7543364543403395 -2.0933541242330316 -2.0194170174186787 -2.7399385761321704 -2.0077040600033911 -2.7184004535571358 -2.7364140391943694 -2.227599234983149 -2.7205721681738986 -2.7544896045729117 -2.1533902774883047 -2.2001599803666396 -2.7197346137696647 -2.0263508688934415 -2.5456799456790775 -2.7552888558109823 -2.7529836951449402 -2.0515564719345125 -2.7377319878387394 -2.7551606547683738
leaf_weight=5113.8268909864128 11.719801367260514 15152.894710700959 1330.3603837331757 0.48158698622137208 600.21526135504246 494.2151253381744 13.487361537292598 1013.8072881074622 301.38388156238943 38.805126961320639 27.981397818773985 3.7252710470929733 21.387233194895089 2121.3630725303665 1073.727576627396 25.254268060438335 88.314524635672569 2326.3172448650002 7.8855111096054307 19.804382166825235 146.06539178173989 96796.587164180353 38.198530997149646 27.185367071069777 39.347915003076196 2.6870141169056296 5891.6601846953854 0.84318634122610014 2.1024185745045543 1.23620973713696 0.92639551963657174 43.401907458901405 2.5445340955629936 4.4513156749308109 0.89311184827238221 38.469695590436459 3.8666376806795624 2845.0270398464054 18.405870264396071 8.6146372100338358 53.519689107313752 106.35797184426337
leaf_count=834352 1692 133294 24443 7 4364 492 13 4184 247 30 4653 12 118 2075 10219 3749 311 30493 1388 26 26331 907438 4603 106 58 72 4828 152 379 3 167 7824 19 28 161 40 53 6437 3318 14 768 19173
internal_value=-2.70562 -2.71651 -2.5574 -2.14877 -2.17548 -2.72961 -2.5191 -2.75238 -2.58422 -2.01266 -2.70292 -2.32343 -2.72457 -2.01228 -2.73208 -2.42503 -2.75444 -2.72874 -2.08251 -2.74376 -2.66746 -2.75503 -2.74597 -2.31163 -2.06201 -2.35774 -2.00777 -2.75521 -2.55981 -2.40021 -2.75527 -2.71587 -2.29389 -2.0866 -2.28504 -2.07481 -2.14546 -2.75551 -2.75306 -2.52244 -2.75539 -2.7496
internal_weight=135859 133126 24492.8 7261.31 2733.3 17231.5 1867.68 108633 1315.19 5930.95 1373.47 73.7416 1299.73 2133.08 1286.24 46.6415 107318 2422.52 96.2 1239.6 165.87 104896 5226.89 113.065 45.7602 6.41229 5892.14 15363.8 4.18181 2.0794 15359.6 46.8728 3.47093 74.8661 5.34443 69.5217 31.052 99668.6 2872.05 27.0205 15312.8 159.878
internal_count=2038134 2030003 236830 29308 8131 207522 45743 1793173 4431 4865 45251 4795 40456 3767 40443 3867 1788742 32192 1699 36576 26357 1756550 839343 4991 142 84 4835 161779 534 155 161245 8010 186 388 189 199 159 917207 9769 3332 153235 19941
is_linear=0
shrinkage=1


Tree=4
num_leaves=80
num_cat=0
split_feature=68 13 34 50 59 41 58 23 56 34 50 58 58 1 49 58 58 32 51 59 41 59 68 32 46 13 50 9 2 5 6 34 32 6 24 33 6 32 29 26 45 32 24 1 50 24 50 24 50 55 24 9 5 46 55 2 32 39 5 5 34 58 58 58 24 24 34 20 24 34 20 34 11 10 29 24 55 24 29
split_gain=461707 509407 162922 182216 118532 63862.9 21493.4 10959.8 7480.77 67312.1 54135.5 25918 9116.55 7557.01 7422.91 60688.6 6937.98 4916.79 3623.48 2207.32 2099.73 1665.97 1538.49 16937.1 1109.51 1034 808.624 20022.3 26784.9 2066.82 1628.42 622.513 6097.95 470.664 464.693 348.872 316.482 311.583 227.197 232.193 204.594 151.498 416.019 96.1502 93.6246 3125.27 91.9925 173.88 83.6111 73.3497 50.6599 37.7848 265.273 25.9631 24.6733 20.377 36.8286 12.744 1227.43 2858.79 10.8877 13.049 277.887 10.7905 7.90836 5.06229 1490.53 4.72378 3.66863 2.64106 1.39312 1.3752 1.29621 18.6801 1.2547 1.26417 1.02793 0.0527369 0.0351298
threshold=2.9566715911260428 0.84437686856004701 1.0875315976577387 -0.57106557047645323 -0.20747341593940119 1.0000000180025095e-35 -0.46681171309487374 -0.36877949743037208 -0.0099307311840878976 -0.25367913583048524 -0.57106557047645323 -0.46681171309487374 -0.47002057975833073 -0.43942009585576852 1.201813722397076 1.5438571624301989 -0.47002057975833073 0.0012108355165690503 0.12381785614118417 -0.20735520847870897 1.0000000180025095e-35 -0.20747341593940119 2.1975042184444926 0.0012167257933330003 1.0000000180025095e-35 1.0470588364280113 2.4843955066683407 0.26313331945886237 -0.0053396378066823992 -0.0024319789484412496 0.23734819942731769 -0.25741838387013299 0.0012139538983852503 -0.28736206217300309 -0.11910860914806104 0.0016396321946842002 -0.26363845991979701 0.0012108355165690503 -0.11640475625552284 -0.19846426057142943 -1.0000000180025095e-35 0.0012110087600033001 -0.11907264633944319 -0.43851332839402563 -0.57106557047645323 -0.11904715813527714 -0.57106557047645323 -0.11879914277875737 -0.57106557047645323 -0.012311415971272747 -0.11894270305199399 0.23210348515129772 -0.0023343739302118497 1.0000000180025095e-35 0.020083640683737001 -0.0053396378066823992 0.0012174187670699001 1.4688733707716524 -0.0023392330544960496 -0.0024319789484412496 -0.25788701120696139 -0.46995082178738595 -0.47002057975833073 -0.46862542033943638 -0.11908056048502903 -0.11899676364941464 -0.25038674252112608 -0.43140229485677123 -0.11898733650540803 -0.25793748633331903 -0.20254722285774057 -0.25793880006659869 -0.47374373666893149 -0.43640131033132878 -0.11650346217696063 -0.11909150062745644 -0.011748023681620399 -0.11908952209105994 -0.11650057322316248
decision_type=2 2 2 2 2 2 2 2 2 2 2 2 2 2 2 2 2 2 2 2 2 2 2 2 2 2 2 2 2 2 2 2 2 2 2 2 2 2 2 2 2 2 2 2 2 2 2 2 2 2 2 2 2 2 2 2 2 2 2 2 2 2 2 2 2 2 2 2 2 2 2 2 2 2 2 2 2 2 2
left_child=2 20 5 6 -3 8 16 38 9 13 11 12 50 33 22 -16 -4 -14 -17 21 34 35 26 -24 37 76 57 51 29 -29 -30 60 46 -1 48 40 64 -18 72 -40 43 -13 -43 -9 45 -36 47 -33 -2 -20 67 69 -53 -52 -51 -12 -57 65 59 -59 -15 62 -62 -63 -34 71 -67 -11 -19 -28 -21 -10 74 -74 75 -7 -25 -77 -76
right_child=1 4 3 -5 -6 7 -8 19 14 10 55 41 17 31 15 18 24 68 49 70 -22 -23 23 25 -26 -27 27 28 30 -31 -32 32 36 -35 44 -37 -38 -39 39 -41 -42 42 -44 -45 -46 -47 -48 -49 -50 54 53 52 -54 -55 -56 56 -58 58 -60 -61 61 63 -64 -65 -66 66 -68 -69 -70 -71 -72 -73 73 -75 78 77 -78 -79 -80
leaf_value=-2.0302082567160906 -2.1176440823354064 -2.7555984817769295 -2.7541354883644802 -2.7556574880427958 -2.0074217053166246 -2.7534598349371562 -2.7548333621422527 -2.1017823151872257 -2.7486927427675063 -2.75246872908285 -2.7556147444192871 -2.7551394700344192 -2.7535925484273229 -2.7556508993823252 -2.755663982309744 -2.7528523527217175 -2.729335621093306 -2.0197028704262103 -2.008513632843965 -2.7512649152240005 -2.0432061616816624 -2.0084172056060066 -2.7555888200552876 -2.6984915756685597 -2.7465687057951911 -2.0126525371866104 -2.7149244802374954 -2.7507696671172663 -2.0526186150261232 -2.0090113479826046 -2.7517677041171487 -2.5482890789999972 -2.0460306704035309 -2.7383189312724183 -2.0341421324574163 -2.7501805770327699 -2.7328696718603864 -2.0077241150193608 -2.1633467522996863 -2.7420071500827379 -2.7349831753039195 -2.7505209408657225 -2.1204929218667377 -2.71130675548019 -2.7556733756091076 -2.7555768298079921 -2.7555667676822928 -2.7329047640331288 -2.7106415653457057 -2.3672252466423882 -2.7268032924980825 -2.1739196338981799 -2.7526588518575696 -2.4747577617954328 -2.7139758654605828 -2.4009211361025247 -2.7370635846737694 -2.7545833946171587 -2.7556723228138931 -2.0314055515175502 -2.7545096830328921 -2.7553512186644831 -2.2931423535520041 -2.7201116835794492 -2.4552066491525983 -2.7551199689396104 -2.2573886463118358 -2.7056750678431554 -2.3104805430573503 -2.7556759631626031 -2.6887382583132964 -2.7555426293303666 -2.4914888782111335 -2.7485693819656305 -2.6938023674265938 -2.691087709787285 -2.7463352235077814 -2.7056750678431554 -2.7056750678431554
leaf_weight=38.000323012471199 2.8920325338840489 587.22069934010506 31.800919510424137 1917.2130709141493 5362.2722046151757 58.713130272924893 106.34426011145115 5.3076723664999008 152.68306295573711 40.458232305943966 726.10845654457808 166.45532542467117 23.413863815367222 12781.96335644275 2553.2412745133042 17.161790899932384 1.3978426158428181 793.46993140131235 324.19157104194164 10.816639289259909 9.9311305880546552 360.81688824295998 958.29096026718616 0.21407005935907353 4.9860143661499015 88.420610696077347 5.7361177355051032 9.6760897263884527 8.0379387661814672 222.79563841223717 335.53973385691643 15.251582413911818 34.255366779863834 2.3796606436371794 15.006732478737829 8.5867474973201734 1.6918333247303952 1753.5824262946844 3.0158730000257492 3.1562398746609679 1.9156188517808939 9.1858229041099531 3.1001084446907035 0.62681037932634343 4908.4445686936378 467.99778077751398 427.64204712957144 66.231280244886875 0.61016939580440421 0.55121351033449062 1.2314327806234353 1.7461328506469751 16.031908392906189 2.2618188560009003 0.69892130792140961 0.65105941146612112 2.1855158358812332 44.951480597257614 4448.2154210805893 19.063886940479279 42.097381055355072 149.95896138250828 3.0313562229275695 28.456590756773949 1.1308151632547367 5377.3950144574046 14.578649669885634 6.7512267157435408 2.8019956275820723 11951.894418403506 0.11003659665584464 78296.132978834212 0.27283325791358937 6.5288125351071349 0.15995954722166061 0.13222457468509674 4.8489979654550543 0.1553158462047638 0.11648688465356727
leaf_count=806 53 5970 5733 83045 98289 10567 15680 135 2763 4418 61346 12586 4221 55401 45484 2615 252 15577 5943 1950 182 6616 20784 13 130 1625 77 1332 150 4083 5785 1383 625 429 284 1548 305 32203 93 569 27 1656 64 113 16387 387 10100 4147 110 11 222 32 252 20 126 29 394 1568 5717 357 3285 6543 193 4918 18 116977 220 267 187 32490 11 1318507 5 1177 20 15 483 28 21
internal_value=-2.70568 -2.40046 -2.73351 -2.41185 -2.08127 -2.74368 -2.06464 -2.15627 -2.74594 -2.71336 -2.42411 -2.19422 -2.08166 -2.75121 -2.75071 -2.67178 -2.02366 -2.04143 -2.04742 -2.05115 -2.75183 -2.03088 -2.75295 -2.69282 -2.01044 -2.05225 -2.75358 -2.74169 -2.45389 -2.04002 -2.73441 -2.75325 -2.70101 -2.07244 -2.7532 -2.53146 -2.0863 -2.00832 -2.72132 -2.44355 -2.30088 -2.74242 -2.57683 -2.16548 -2.7536 -2.73244 -2.74629 -2.69791 -2.21492 -2.01013 -2.73158 -2.75555 -2.68419 -2.56139 -2.52236 -2.75506 -2.6333 -2.75527 -2.75253 -2.53605 -2.75545 -2.7438 -2.71879 -2.74993 -2.05474 -2.75541 -2.75373 -2.74608 -2.02045 -2.75566 -2.74773 -2.75553 -2.74941 -2.72087 -2.75211 -2.75278 -2.73935 -2.70383 -2.70309
internal_weight=135852 11354.4 124498 3815.32 5949.49 120683 1898.11 460.431 120222 15370.2 1778.07 1049.13 870.389 13592.1 104852 2895.84 1791.77 819.686 342.603 388.18 5404.88 377.254 101956 1051.77 1759.97 93.4837 100904 12551.5 576.049 232.472 343.578 13551.7 546.203 40.38 5394.95 16.4368 37.078 1754.98 72.2509 6.17211 7.8501 178.741 12.2859 5.93448 5391.45 483.005 509.125 81.4829 3.5022 325.442 50.7027 11975.4 17.778 3.49325 1.25013 728.945 2.83658 88353 4512.23 64.0154 13005.5 223.544 45.1287 178.416 35.3862 83840.8 5391.97 47.2095 796.272 11957.6 10.9267 78448.8 66.0788 6.80165 59.2771 59.0007 5.06307 0.28754 0.276446
internal_count=2038134 121662 1916472 137043 104259 1779429 53998 22895 1756534 189140 100987 39218 24912 88153 1567394 54179 38318 19985 8695 10400 17403 8439 1513215 22905 32585 2121 1490310 44201 11350 5415 5935 86918 16578 1235 17221 1823 948 32455 12495 662 275 14306 1720 248 17058 671 15630 5530 163 6080 4927 32851 284 242 137 61769 423 1446109 7642 1925 70340 14939 3478 11461 643 1438467 117197 4685 15764 32567 1961 1321270 11833 1182 10651 10610 496 43 41
is_linear=0
shrinkage=1


Tree=5
num_leaves=43
num_cat=0
split_feature=16 16 7 3 49 26 20 7 59 36 29 51 12 9 24 6 6 61 59 6 49 58 10 2 62 15 6 6 24 51 39 24 39 11 53 58 14 24 46 29 29 29
split_gain=759767 519821 171271 63635.6 54529.9 36073 19987.8 26940.4 18427.4 16086.5 10014.6 3394.78 79015.7 4599.57 3262.87 3795.96 3241.2 3183.46 3021.58 2058.59 1685.69 13594.7 13664 1413.42 1192.73 5093.81 801.191 1611.43 265.348 220.707 14124.9 2750.28 1432.39 215.966 203.797 158.849 110.674 93.6256 2258.34 20.8367 8.40053 373.389
threshold=1.9268556619192192 3.7899848659607738 5.2177430376174563 -0.0070365372753536997 2.6740245131517315 5.5831521410182878 0.16753777318929827 2.6942599275167405 -0.20747341593940119 6.6551249998820685 -0.091944465938623723 0.74539182804175208 -0.50201371139026829 0.7144532120163396 -0.11908323732838894 0.43271904151254365 0.19966953702516696 0.0026192684503257005 -0.20735520847870897 -0.020820413328159246 1.201813722397076 -0.47148549714816984 0.5587340427012929 -0.010465472989283799 -0.11890523234913668 -0.27830257067999586 -0.27759352006874177 -0.27898902608363624 -0.11902376485200143 0.30378409731464268 -0.31066306008844063 -0.098029515149265334 -0.31263313679090621 3.9946654799444112 0.0012108355165690503 -0.47106694932250154 -1.0000000180025095e-35 -0.098029515149265334 1.0000000180025095e-35 -0.11619434412055528 -0.11639873760177664 -0.11639398286531709
decision_type=2 2 2 2 2 2 2 2 2 2 2 2 2 2 2 2 2 2 2 2 2 2 2 2 2 2 2 2 2 2 2 2 2 2 2 2 2 2 2 2 2 2
left_child=2 3 4 6 5 9 7 35 -6 11 14 20 13 -13 15 -8 -7 -4 -10 -11 29 22 -22 -3 25 -16 27 -27 -15 37 32 -32 -31 40 -35 -2 -30 39 -39 -1 -14 -42
right_child=1 23 17 -5 8 16 10 -9 18 19 -12 12 33 28 24 -17 -18 -19 -20 -21 21 -23 -24 -25 -26 26 -28 -29 36 30 31 -33 -34 34 -36 -37 -38 38 -40 -41 41 -43
leaf_value=-2.7554224217919541 -2.5171595778560167 -2.0683850534722654 -2.752395789171191 -2.7555562167686865 -2.7552881240992142 -2.7527283255550552 -2.7542071522001677 -2.0088062731154901 -2.0084340082865415 -2.0118981920936623 -2.7546413826652407 -2.0125615866564348 -2.755701301565479 -2.7536100086193409 -2.7539098844324501 -2.0179549795129734 -2.0196233953127236 -2.010568690182831 -2.7522786460136492 -2.7511548352680322 -2.7552805503726181 -2.7556804773789891 -2.0123589643559585 -2.7556963233463003 -2.0086939050322705 -2.0115038555354401 -2.0084589553483729 -2.3385791504797395 -2.7224596282429765 -2.7491614039404499 -2.7539260731030302 -2.0832896193420662 -2.0126277238180048 -2.1425311688254274 -2.7398680683293084 -2.7554847926707695 -2.1413134018156947 -2.7516986089019304 -2.4158168846543306 -2.7443569448913192 -2.1978195822013342 -2.755295993983137
leaf_weight=96496.396031218581 6.6935068066231898 6.9899044688791028 14.59936475381255 330.1048863758333 118.74496739264578 16.284780232701451 32.829123544041067 263.71037740493193 346.24688822356984 82.553151431959122 46.404590412043035 396.66370546398684 8109.7962678405456 23.340400280896578 27.317437204997987 36.715558604802936 183.6682919091545 807.82336112391204 14.083505740854887 10.483586392365394 116.62813986744732 1852.4860525140539 131.08233194798231 4486.618197907228 6167.3098956355825 89.426571607589722 334.77639627456665 69.434984922409058 1.0039836703799667 7.1388231148011974 8697.1408272944391 14.811839603818951 71.088206354063004 2.2985358866862944 2.6569512602873147 224.06379042612389 2.2929890155792227 5576.6235270141624 49.98660305282101 457.4507358558476 2.5758794420398763 121.02536862855777
leaf_count=1750283 12 23 2632 4507 14404 2716 693 118 152 37 5939 190 50703 3988 222 21 94 889 2539 1890 1629 33397 64 23236 3200 39 146 31 181 1287 66674 196 32 2 479 788 1 28045 2932 29911 52 3760
internal_value=-2.7057 -2.32794 -2.74271 -2.07667 -2.74753 -2.74961 -2.04596 -2.35355 -2.21541 -2.75071 -2.02364 -2.75121 -2.72103 -2.05522 -2.01861 -2.36373 -2.07942 -2.02379 -2.0376 -2.09526 -2.75351 -2.70912 -2.36164 -2.75455 -2.01505 -2.09097 -2.05422 -2.1527 -2.69247 -2.75435 -2.74672 -2.75275 -2.08001 -2.75528 -2.44116 -2.74807 -2.30377 -2.755 -2.74868 -2.75537 -2.75549 -2.74148
internal_weight=135849 12122.4 123727 7628.79 122905 122425 7298.68 494.468 479.075 122226 6804.21 122132 8661.65 423.301 6757.81 69.5447 199.953 822.423 360.33 93.0367 113471 2100.2 247.71 4493.61 6688.27 520.955 493.638 158.862 26.6374 111371 8790.18 8711.95 78.227 8238.35 4.95549 230.757 3.29697 102580 5626.61 96953.8 8233.4 123.601
internal_count=2038134 38975 1999159 15716 1995638 1978543 11209 918 17095 1975733 10291 1973806 59356 4360 4352 714 2810 3521 2691 1927 1914450 35090 1693 23259 3638 438 216 70 4170 1879360 68189 66870 1319 54996 481 800 182 1811171 30977 1780194 54515 3812
is_linear=0
shrinkage=1


Tree=6
num_leaves=61
num_cat=0
split_feature=26 37 24 21 52 7 6 59 17 23 46 1 5 8 6 8 37 37 61 14 46 19 35 5 5 13 1 37 4 4 1 4 24 23 19 0 35 34 16 26 5 46 23 34 59 9 24 24 19 19 24 24 24 24 19 8 8 9 59 59
split_gain=610568 309088 126989 389442 34385.9 32548.7 149500 27365.8 37316.4 18581.4 14333.1 6363.22 944.289 841.679 1720.49 785.157 69876.3 15946.4 626.164 407.753 161.824 5347.54 5223.98 5552.71 3539.22 164.125 1967.13 131.838 263.054 125.064 100.771 427.744 95.3958 254.272 67.2233 307.435 53.9929 49.7561 105.826 9.63494 862.961 5.72408 6.16598 137.701 3.28198 6.31867 31.5878 350.054 3.10773 55.0537 120.426 206.955 5.48498 68.2285 91.4791 2.38708 22.2426 15.2316 1.07854 141.562
threshold=2.0407673184013135 -0.35056338804461201 -0.034143622368324092 -0.11427159464195914 -0.50201371139026851 -0.19446415904592082 -0.27480250803895279 -0.20747341593940119 2.9208419481564349 -0.29226260048165625 1.0000000180025095e-35 -0.439433738831641 -0.007035048509440099 -0.2910369199698033 -0.27898902608363624 -0.0026937800896145998 -0.35056338804461201 -0.35549165908091751 0.0026265483160752504 0.033186869972119261 1.0000000180025095e-35 -0.055111983989675893 -0.17813377797949878 -0.007035048509440099 -0.0069881473967843997 1.0000000180025095e-35 -0.43898851413535989 -0.3214865889304101 -1.0000000180025095e-35 -0.030671189387603395 -0.41493190530905594 -0.051298236573549295 -0.098029515149265334 -0.36062889584120789 -0.055111645889536091 -0.41795080945187651 -0.18310671996211997 -0.25793670073218372 0.41224681290091053 1.1704274093712057 -0.0072387091968277991 1.0000000180025095e-35 0.12490477005777766 -0.25793857433897555 3.2022798914576773 -0.23263856095885632 -0.11899106080921304 -0.11899210826965824 -0.055088316979891895 -0.055087978879752142 -0.11899257380763394 -0.11899164273168264 -0.11908300455940109 -0.11908323732838894 -0.055075469174580595 -0.010129990221554247 -0.0091751028221327482 0.29273068771584981 -0.20463643688278818 -0.20440002196140378
decision_type=2 2 2 2 2 2 2 2 2 2 2 2 2 2 2 2 2 2 2 2 2 2 2 2 2 2 2 2 2 2 2 2 2 2 2 2 2 2 2 2 2 2 2 2 2 2 2 2 2 2 2 2 2 2 2 2 2 2 2 2
left_child=2 4 5 9 36 15 -7 37 13 18 -8 12 19 14 -9 20 17 -17 30 29 39 22 -22 -24 -25 32 -27 28 -3 -12 31 -4 58 -34 35 -13 -2 41 -39 44 -41 -5 -43 -44 55 -46 47 -47 -18 50 -50 -52 53 -51 -55 -1 57 -57 -23 -60
right_child=1 27 3 7 -6 6 10 8 -10 -11 11 34 -14 -15 -16 16 48 -19 -20 -21 21 25 23 24 -26 26 -28 -29 -30 -31 -32 -33 33 -35 -36 -37 -38 38 -40 40 -42 42 43 -45 45 46 -48 -49 49 52 51 -53 -54 54 -56 56 -58 -59 59 -61
leaf_value=-2.7555892903734236 -2.0082749104234421 -2.7472261286112087 -2.3140277057727201 -2.7557476017751661 -2.7554412349112902 -2.0078194973901269 -2.7557426315038001 -2.7552380476227336 -2.0094275896203975 -2.0135949718877133 -2.7177383332131093 -2.1472321266585306 -2.0111604361573159 -2.7556094241553279 -2.4298540534590631 -2.7551908274184376 -2.7556261930746802 -2.0122771463305664 -2.4031365979327433 -2.7489341948573358 -2.7554339975457824 -2.7556132167054344 -2.7548730063554525 -2.0115294308480332 -2.7532471625927322 -2.3445349745553035 -2.755614450646156 -2.7557304525605599 -2.1472321266585306 -2.0845040316449182 -2.7550063314947808 -2.7534971735069989 -2.2165460315236252 -2.7499299111511695 -2.7545840210034647 -2.7507292250099393 -2.1129029937695689 -2.754869122619505 -2.6343686823489607 -2.0845040316449186 -2.7556182231707087 -2.7555761019038343 -2.7555589836557726 -2.6385737511654099 -2.7553874437382948 -2.7534763894947618 -2.7549728230009283 -2.1484911942753566 -2.7518469352370523 -2.7553438195764843 -2.1593953718951306 -2.7420713259077267 -2.7556833392094457 -2.7496292110260061 -2.4963768013285592 -2.6904542569267123 -2.7555401960080848 -2.7526295360192896 -2.5354623590247036 -2.7545125850808598
leaf_weight=69476.881313068792 4701.5318356929347 5.3635915582999587 6.870708801783624 7783.9305033842102 159.36306591145694 826.58853733725846 4387.1439175819978 96.411439161747694 300.51092224940658 2543.9445186378434 0.81535466294735659 2.1752038002014151 97.884171009063721 345.30812139809132 69.43197226524353 88.28606385551393 25860.302958540618 393.62776368204504 17.966665343381464 6.8321640091016889 155.748883866705 11915.766864438541 56.256959517486393 89.183355808258057 19.446894294582307 31.170059802010655 357.76194259431213 2120.8073390116915 2.1752038002014151 4.3504076004028303 66.377613859251142 21.656584195792675 2.5190948825329533 8.0857024705037457 42.238406696356833 9.4514581337571126 37.485073605552316 56.007914985530078 26.3223164267838 4.3504076004028311 367.71359146106988 280.54359413404018 255.87691241875291 27.28484779689461 135.90554843842983 21.454366233199838 63.508917624130845 2.1807504305616012 12.298293796367945 121.39954654593021 2.2297668717801571 3.1545507647097102 706.89023603871465 7.6641835244372487 5.7762646218761784 24.429951712489128 233.34941862057894 15.503925518132744 6.8898396063596001 1351.0885666888207
leaf_count=757597 2596 967 44 13524 27082 382 689744 1299 198 1182 147 1 45 1635 31 1896 279403 557 25 407 6949 89477 7448 41 207 16 160 5167 1 2 3816 193 63 633 1017 1704 113 2606 32 2 7466 1093 3244 13 19913 3868 11450 2 200 3977 2 121 10401 45 18 708 4608 157 851 71588
internal_value=-2.70575 -2.2519 -2.7305 -2.57489 -2.03333 -2.74634 -2.6262 -2.72827 -2.45108 -2.04144 -2.73857 -2.28001 -2.0626 -2.71111 -2.61874 -2.75213 -2.74474 -2.14834 -2.6696 -2.49524 -2.75452 -2.74959 -2.54792 -2.35219 -2.14415 -2.75432 -2.72218 -2.75497 -2.55325 -2.1811 -2.7211 -2.64359 -2.75526 -2.60916 -2.72489 -2.62151 -2.00903 -2.75498 -2.71584 -2.7555 -2.74688 -2.75536 -2.74989 -2.7441 -2.75554 -2.74825 -2.73661 -2.6883 -2.75551 -2.75191 -2.66622 -2.4791 -2.75376 -2.74336 -2.63898 -2.75557 -2.74963 -2.71426 -2.75538 -2.75332
internal_weight=135843 7026.73 128817 11898.4 4898.38 116918 5377.48 9241.63 811.662 2656.82 4550.89 163.747 109.882 511.152 165.843 111541 27201.6 481.914 112.872 11.9979 84339.2 13993.9 320.636 164.887 108.63 13673.3 388.932 2128.35 7.5388 5.16576 94.9049 28.5273 13284.4 10.6048 53.8651 11.6267 4739.02 8429.97 82.3302 70345.3 372.064 8347.64 563.705 283.162 69973.2 223.05 87.144 23.6351 26719.7 859.413 17.6826 5.38432 841.73 134.84 13.4404 69750.2 273.283 39.9339 13273.7 1357.98
internal_count=2038134 35926 2002208 28935 29791 1973273 693449 23675 3163 5260 693067 3323 601 2965 1330 1279824 296620 2453 4078 556 983204 177433 14645 7696 248 162788 176 6135 968 149 4053 237 162612 696 2722 1705 2709 20512 2638 805771 7468 17874 4350 3257 798303 35233 15320 3870 294167 14764 323 123 14441 4040 63 763070 5473 865 161916 72439
is_linear=0
shrinkage=1


Tree=7
num_leaves=8
num_cat=0
split_feature=0 4 45 56 37 4 58
split_gain=1.86747e+06 24369.1 1934.05 977.669 632.681 1472.3 206.702
threshold=-0.44007928742046026 -0.050548162130423992 1.0000000180025095e-35 -0.0089659998811764986 -0.45011446297798158 -0.036671784932605846 -0.46974154787455186
decision_type=2 2 2 2 2 2 2
left_child=1 2 -1 6 -3 -6 -4
right_child=-2 4 3 -5 5 -7 -8
leaf_value=-2.7552522595421611 -2.7556819636130587 -2.0074249188455728 -2.0680494364971542 -2.7499337281824299 -2.0250377106644621 -2.7508749004209472 -2.7256474330444944
leaf_weight=115.76216445211321 126637.47207780834 9039.2533802753314 18.516541007906202 8.1984675172716397 22.278089680708945 9.9013968324288708 1.1648702155798663
leaf_count=3177 2025469 5795 199 1478 21 1785 210
internal_value=-2.70567 -2.01848 -2.66496 -2.29492 -2.00824 -2.24641 -2.10774
internal_weight=135853 9215.07 143.642 27.8799 9071.43 32.1795 19.6814
internal_count=2038134 12665 5064 1887 7601 1806 409
is_linear=0
shrinkage=1


Tree=8
num_leaves=2
num_cat=0
split_feature=10
split_gain=1.89762e+06
threshold=5.8971884791324856
decision_type=2
left_child=-1
right_child=-2
leaf_value=-2.7680603423168595 -2.0110736604569674
leaf_weight=125430.50758380443 8863.4658933766186
leaf_count=2038121 13
internal_value=-2.7181
internal_weight=134294
internal_count=2038134
is_linear=0
shrinkage=1


Tree=9
num_leaves=14
num_cat=0
split_feature=51 0 0 51 50 19 9 32 1 20 38 27 20
split_gain=872902 397758 89522 40393.3 110752 22048.8 130423 72752.5 27142.1 48889.2 5685.18 4587.25 72918.8
threshold=0.84632774004610078 -0.41699345873630117 -0.38395118261015887 0.66159130775099062 -0.28526407807403892 -0.055020358851797943 -0.11134434900963909 0.0012279866165581003 -0.43939679282072724 -0.43137433494785865 -0.46237352451357039 2.4088846868903624 -0.42359525371612167
decision_type=2 2 2 2 2 2 2 2 2 2 2 2 2
left_child=3 -2 -3 5 -5 11 7 8 9 -7 -8 -1 -13
right_child=1 2 -4 4 -6 6 10 -9 -10 -11 -12 12 -14
leaf_value=-2.7595068799759828 -2.7594894902381575 -2.0088753202087797 -2.7593892283521679 -2.0092985108762171 -2.7594778014395787 -2.7594223300201484 -2.0091251816304183 -2.0096775316013709 -2.7595037709551735 -2.0116939320893277 -2.7576349350757137 -2.0126741128026873 -2.7594978529953882
leaf_weight=101694.15991418622 2795.3539568353444 6588.1676793880761 422.69567236676812 693.43518930207938 1690.2987896949053 587.40843121986836 693.27489863336086 346.642976581119 13884.379555230029 347.57901119906455 26.201763365417719 348.03584721963853 5251.54232857842
leaf_count=1580035 35926 543 22187 47 13202 36544 18 10 296914 144 1029 262 51273
internal_value=-2.70951 -2.25519 -2.05413 -2.745 -2.54116 -2.74894 -2.69397 -2.72518 -2.74194 -2.48126 -2.03643 -2.75708 -2.71302
internal_weight=135369 9806.22 7010.86 125563 2383.73 123179 15885.5 15166 14819.4 934.987 719.477 107294 5599.58
internal_count=2038134 58656 22730 1979478 13249 1966229 334659 333612 333602 36688 1047 1631570 51535
is_linear=0
shrinkage=1


Tree=10
num_leaves=34
num_cat=0
split_feature=35 44 32 44 3 35 44 35 44 3 1 26 55 9 24 29 0 24 38 39 0 1 1 54 0 16 35 16 16 18 1 16 3
split_gain=722845 809586 56644.6 104505 27200.6 13557.5 129087 438.716 9854.2 14510.3 398.555 42.4323 169.436 113.887 20.1761 7.0297 2637.38 194.634 36.2768 111.353 122.274 48.2852 4.92986 571.213 172.656 4.80386 3.58679 39.8303 33.7769 39.0972 3.81159 12.2672 2.59042
threshold=0.19117076062710911 1.0000000180025095e-35 0.0012092763256610001 1.0000000180025095e-35 -0.0089659998811764986 0.076961415073819164 1.0000000180025095e-35 -0.16816643037521412 1.0000000180025095e-35 -0.0089659998811764986 -0.4394536236918995 -0.20320700097083524 -0.044800371341224644 -0.20828389549726087 -0.10820704818035963 0.28506587050666171 -0.41655581269489533 1.5064940790214671 -0.55295923333549379 -0.46172728161145959 -0.41795080945187651 -0.1999541694390338 -0.43945763633186191 -0.010465472989283799 -0.41160494185149155 0.85442070984559926 -0.17914361489350034 -0.28777260096691681 -0.28782626476942857 -0.37532541045906848 -0.43906838053224267 -0.28740253901926305 0.015152282691608203
decision_type=2 2 2 2 2 2 2 2 2 2 2 2 2 2 2 2 2 2 2 2 2 2 2 2 2 2 2 2 2 2 2 2 2
left_child=2 -2 3 14 -3 7 -7 15 -9 -10 -8 12 13 -11 32 22 18 -18 19 -17 21 -21 23 24 -4 -16 -24 28 -28 -30 31 -29 -1
right_child=1 4 5 -5 -6 6 10 8 9 11 -12 -13 -14 -15 25 16 17 -19 -20 20 -22 -23 26 -25 -26 -27 27 30 29 -31 -32 -33 -34
leaf_value=-2.7556400027738581 -2.755671975026774 -2.0077287070947003 -2.6878525173886367 -2.0083117144451932 -2.7552757400441781 -2.7556595947721139 -2.0079147127807868 -2.7556495271621082 -2.011741724571614 -2.7276114775283569 -2.7338589989972522 -2.7549549568662672 -2.7520744285921022 -2.1710671033324367 -2.7056703335209864 -2.7525999240060677 -2.7225537342438977 -2.0347061161512228 -2.7556688888828584 -2.7056703335209864 -2.7376546002227844 -2.1682852068395158 -2.7556136946628311 -2.7555959464901747 -2.1284861015148802 -2.4951741295551515 -2.7479816816307725 -2.726834903787839 -2.5074047889475048 -2.7388961737284259 -2.7553725187430875 -2.7552588379648197 -2.6675375650339124
leaf_weight=1286.896926142741 7278.1704163136892 7557.3250316847116 2.1260716235265136 734.79664824856445 123.5487583600916 5681.7315518562682 644.13093976676464 5755.5319078331813 111.70761824445799 1.2815799103118479 1.7916871975176025 150.59395622322336 13.373061820864676 1.9373518964275744 0.23297480586916108 15.740850260015579 1.0095574920997012 13.169815987348555 5022.5481631583534 0.41602643905207548 2.2742778668180099 1.8247335404157636 100098.63336773356 602.71157934609801 4.2330689653754225 0.41164428973570466 5.9964549718424678 62.984032624866813 4.2827033731155097 2.4795175767503661 550.37054189899936 118.55612179543823 0.17363556707277794
leaf_count=134507 119557 95841 58 9339 22273 150699 8119 152468 1435 97 323 1943 1589 30 42 1574 182 166 36344 75 410 23 1261100 21266 98 21 1028 2707 453 447 12562 1340 18
internal_value=-2.70567 -2.3778 -2.74624 -2.48389 -2.01976 -2.75071 -2.6795 -2.75471 -2.74157 -2.45159 -2.00999 -2.74653 -2.67231 -2.37253 -2.75541 -2.75545 -2.75345 -2.08429 -2.7554 -2.68989 -2.48339 -2.25745 -2.75555 -2.75043 -2.29692 -2.5482 -2.75558 -2.75147 -2.66612 -2.59217 -2.75302 -2.74562 -2.75559
internal_weight=135853 14959 120894 2022.51 7680.87 118871 6327.65 112544 6034.43 278.894 645.923 167.186 16.592 3.21893 1287.72 106509 5056.98 14.1794 5042.8 20.2559 4.51504 2.24076 101452 609.071 6.35914 0.644619 100843 744.669 12.7587 6.76222 731.911 181.54 1287.07
internal_count=2038134 237671 1800463 143927 118114 1656536 159141 1497395 157562 5094 8442 3659 1716 127 134588 1339833 38774 348 38426 2082 508 98 1301059 21422 156 63 1279637 18537 1928 900 16609 4047 134525
is_linear=0
shrinkage=1


Tree=11
num_leaves=8
num_cat=0
split_feature=0 0 61 59 59 4 59
split_gain=870160 1.01486e+06 5998.38 1130.92 3214.31 173.033 180.204
threshold=-0.44002458166528452 -0.44007928742046026 0.0026192684503257005 -0.20617313387178687 -0.20652775625386346 -0.051673273795111947 -0.20617313387178687
decision_type=2 2 2 2 2 2 2
left_child=1 -1 5 4 -4 6 -3
right_child=-2 2 3 -5 -6 -7 -8
leaf_value=-2.755723864049354 -2.7557288644595856 -2.7379531789771061 -2.0338772060981585 -2.0078717684950451 -2.7532776496039988 -2.7538925361656812 -2.1491989191334988
leaf_weight=9214.6724232006818 117497.71385444608 2.3129982599057257 68.210745075717568 9014.9375180974603 19.896222441922873 26.724226273130625 2.1379084587097195
leaf_count=12665 2013296 417 74 4287 3587 3807 1
internal_value=-2.70572 -2.3855 -2.01203 -2.00966 -2.19597 -2.70522 -2.43256
internal_weight=135847 18348.9 9134.22 9103.04 88.107 31.1751 4.45091
internal_count=2038134 24838 12173 7948 3661 4225 418
is_linear=0
shrinkage=1


Tree=12
num_leaves=112
num_cat=0
split_feature=59 24 23 59 59 24 20 1 0 19 19 19 19 20 24 24 19 29 6 18 29 49 20 46 59 1 59 34 58 19 35 19 20 24 22 58 37 23 24 20 23 21 19 19 24 24 24 24 24 1 35 24 20 22 24 23 20 19 24 18 19 35 1 19 17 29 19 8 24 19 34 19 24 19 20 19 19 24 1 15 19 19 24 24 18 19 19 20 15 19 19 19 19 1 1 8 5 13 19 8 29 6 58 58 8 8 59 59 4 4 29
split_gain=558738 40167.1 42819 18092.1 165875 13335.1 12444.2 7035.18 6044.93 5744.79 6290.37 4444.18 4760.91 3587.26 6560.77 3580.63 3527.17 2942.32 32815.2 10746.6 9175.63 22754.9 5162.85 3214.99 4951.05 17271.6 4785.08 4267.13 17794.4 29475.9 14045.3 2294.5 2231.86 2219.81 2133.33 2129.11 1986.56 1884.52 1787.66 2207.66 1739.22 4948.08 3839.69 1721.53 1657.24 2265.69 3106.16 1564.79 3749.43 1533.2 1886.02 2180.09 1520.9 1397.46 1205.21 1157.87 1089.86 1039.91 3130.61 1025.43 946.328 922.33 847.181 1231.07 937.776 825.869 8790.36 3152.13 725.926 699.7 646.777 611.693 712.144 1273.9 586.53 582.486 530.865 689.56 972.981 461.873 458.084 2254.03 618.505 788.516 452.984 442.779 367.859 343.541 322.445 199.911 111.587 1900.21 99.7397 89.1999 78.4588 76.9982 442.514 4395.26 591.644 261.728 2679.89 32.6135 26.2388 1632.17 2.87667 56.7403 762.283 887.544 36.8555 694.746 684.052
threshold=2.9519164897115808 -0.11903889483620964 -0.13749743354424732 -0.098486137181185582 -0.09553095066388044 -0.11899303934560954 -0.25484673149683307 -0.26821769091447384 -0.41795080945187651 -0.055082907377655595 -0.055087978879752142 -0.055090007480590744 -0.055068369071645397 -0.27888559462182111 -0.11901189363362273 -0.11900048795321974 -0.055080202576537389 -0.11640270991324909 0.48295725804874451 -0.16888141726420072 -0.11636166269469994 1.0000000180025095e-35 -0.384380103580448 1.0000000180025095e-35 -0.20711879355732452 -0.43945629878520781 -0.20747341593940119 -0.22039118053513537 -0.47057864352588846 -0.055088655080031697 0.19117076062710911 -0.055071073872763589 -0.25252547811065867 -0.11742760971028848 0.065712928340956461 -0.47106694932250154 -0.27910345801818348 -0.13572323833565911 -0.11900607440892734 -0.28078037374472037 -0.14098606451431875 0.022356749894155554 -0.055065326170387494 -0.055068369071645397 -0.11887828423461544 -0.11897732743893184 -0.11896091722529069 -0.11901189363362273 -0.11900607440892734 -0.27404946863475527 -0.18310351062394498 -0.11902376485200143 -0.25354837581184075 0.051297996486546905 -0.11901189363362273 -0.16290490030213917 -0.2819390043654611 -0.055069721472204493 -0.11904715813527714 -0.14073886506107594 -0.055074454874161294 -0.18310389410442399 -0.27951205375522975 -0.055088993180171443 0.013059296995646003 -0.1162651836751482 -0.055084259778214642 0.19187159102676812 -0.11900607440892734 -0.055072426273322692 -0.25793717876567251 -0.055073440573741993 -0.11899012973326184 -0.055074454874161294 -0.25252547811065867 -0.055069721472204493 -0.055073440573741993 -0.11900607440892734 -0.26547915330985988 -0.27830024989778229 -0.055100150484783894 -0.055100826685063393 -0.11879914277875737 -0.11876329635463344 -0.15731454540521211 -0.055069721472204493 -0.055067016671086343 -0.28078037374472037 -0.27830014340392101 -0.055091021781010094 -0.055065326170387494 -0.055061268968710192 -0.055068369071645397 -0.26547915330985988 -0.43945433705011505 0.42345492760382747 -0.00055656824103409992 0.72556515555671053 -0.055099474284504339 0.47937278119721916 -0.11642245109753664 0.29037742799330762 -0.46904396816510469 -0.46862542033943638 0.076176721780433318 0.084559476216581872 -0.20652775625386346 -0.20640954879317128 -0.019701350656895749 -0.019888869267677096 -0.11650731411535824
decision_type=2 2 2 2 2 2 2 2 2 2 2 2 2 2 2 2 2 2 2 2 2 2 2 2 2 2 2 2 2 2 2 2 2 2 2 2 2 2 2 2 2 2 2 2 2 2 2 2 2 2 2 2 2 2 2 2 2 2 2 2 2 2 2 2 2 2 2 2 2 2 2 2 2 2 2 2 2 2 2 2 2 2 2 2 2 2 2 2 2 2 2 2 2 2 2 2 2 2 2 2 2 2 2 2 2 2 2 2 2 2 2
left_child=3 57 5 17 8 9 7 15 -5 10 34 80 32 14 16 31 -11 23 20 22 21 -19 -20 95 25 26 -25 94 29 30 -29 -4 47 54 62 -31 -23 -33 39 -16 49 42 60 87 45 79 -47 -13 -49 50 51 -15 68 -52 69 -40 -45 -2 -59 71 -42 -50 63 64 -3 66 -22 -68 -14 -9 74 72 -17 -74 -54 88 93 -78 -79 -7 81 -8 89 -84 -12 -57 -73 -18 -48 -82 -70 -92 -81 -56 -27 104 99 -98 -99 100 -97 -102 -26 -104 -1 106 -106 -108 109 -107 -111
right_child=1 2 6 4 -6 44 11 33 -10 13 84 12 52 40 38 59 43 18 19 -21 65 36 -24 24 102 27 -28 28 -30 35 -32 37 -34 -35 -36 -37 -38 -39 55 -41 41 -43 -44 56 -46 46 75 48 61 -51 53 -53 70 -55 76 85 -58 58 -60 -61 -62 -63 -64 -65 -66 -67 67 -69 90 -71 -72 86 73 -75 -76 -77 77 78 -80 92 82 -83 83 -85 -86 -87 -88 -89 -90 -91 91 -93 -94 -95 -96 96 97 98 -100 -101 101 -103 103 -105 105 108 107 -109 -110 110 -112
leaf_value=-2.7560489150770073 -2.7559954359839738 -2.7483437610874026 -2.2082390747191458 -2.0087767325462025 -2.7560420316849759 -2.6023483498008289 -2.7544617243718919 -2.1438857716142801 -2.7542912573225298 -2.4955914607332477 -2.1692861902095366 -2.181945099579655 -2.5309257459037435 -2.3094801973222112 -2.4467162139585232 -2.0496863906954159 -2.153304697779741 -2.7559205445773425 -2.7541678735338344 -2.7554142806877628 -2.7559847462807698 -2.0231185496187258 -2.0145621836083425 -2.7542505499962253 -2.756042806535401 -2.7356982321061785 -2.0221238441098266 -2.7559656267267729 -2.7560223955712488 -2.7512502888512271 -2.1487882936151341 -2.2534747758380087 -2.7541401491329101 -2.7530328663772896 -2.0291795599624178 -2.0089356528460685 -2.751200137574402 -2.4391864530784648 -2.4964281722840327 -2.6458119621568135 -2.3606315416091026 -2.5837116688794257 -2.4905444136851509 -2.4400015757824689 -2.755891092435188 -2.0233801756041707 -2.5339215975507203 -2.4890326700346606 -2.2698115654194968 -2.5728837626266081 -2.4649987681898611 -2.4641554711974134 -2.4153636551297137 -2.5140214521867876 -2.2168576336964536 -2.311254919019984 -2.2056213222503445 -2.7554797550320558 -2.1825567802342065 -2.050128136123929 -2.2214847875001569 -2.0308428408536607 -2.7552021230861605 -2.7535478245817817 -2.0291795599624178 -2.7560440318058501 -2.7535415606100466 -2.0228786907146041 -2.2867126804096558 -2.2573691878929556 -2.7554076141639836 -2.7551980394817228 -2.7539558391340591 -2.05276704920204 -2.7535274396765801 -2.4143840144189475 -2.0525135075549601 -2.2165348908202653 -2.0722724456537089 -2.6853008805750469 -2.7554868221243551 -2.0484699718466723 -2.0773041956367089 -2.7501732931666196 -2.0108741881831 -2.4093848100012409 -2.5363427526405706 -2.0111584187529172 -2.7547934316144578 -2.6303739852538959 -2.753541140075356 -2.0363627894243583 -2.7556201180970028 -2.155409126743701 -2.7560269928039851 -2.7558073514613719 -2.7558466058296407 -2.7421372017712637 -2.0233472324697623 -2.7560372475470172 -2.0496863906954168 -2.2683630811477089 -2.0924578326650769 -2.7559545717228504 -2.7558395693272439 -2.755918187622751 -2.0719471595769621 -2.7512289308651248 -2.7560453266561447 -2.7514247386790833 -2.1891354226422717
leaf_weight=70249.305033585057 922.23244795482606 5.989030207507315 433.68518998101354 870.6158345239237 6582.7392609333619 121.6703052520752 30.990344369783998 214.22045516967773 27.937484009191394 119.65832683164626 106.17404837813228 250.2602367401123 110.71421051025391 335.89076042175293 363.72309635113925 8.3612289428710884 113.73020033258945 386.88033520895988 26.072868720628321 78.202820247970521 770.21595481038094 161.76029947493225 235.8611178426072 27.294008996337652 7331.5462645730004 617.07389206066728 118.89817939326167 594.79126192536205 1835.8591761942953 9.9188503259792906 112.88063233718276 236.13264465332031 25.687055227346718 16.075253571383655 16.722457885742188 250.83686828613281 9.81110339052975 335.31412887573242 240.59113558847457 226.6181526184082 205.28259468078613 326.37626838684082 329.54776573181152 78.718886469490826 314.911576109007 33.672264994122088 27.678552627563477 210.47232627868652 115.355160147883 443.74303643591702 3160.8330230712891 728.58022880554199 36.244950381107628 2740.8326505124569 208.45409202575684 238.72751045227051 147.33062362670898 87.245275607332587 32.242748238146305 8.3667740458622557 339.06225776672363 68.547817337326705 58.50106343626976 19.487031565979123 16.722457885742188 8935.546735316515 19.437108922749758 59.260556194931269 52.845416001044214 463.90960546676069 77.38574190158397 58.218135997653008 23.381884177215397 8.4000446638092452 19.32549496088177 36.139593424275517 328.68279457092285 277.93878936767578 228.34804725646973 87.971481425687671 88.347253995016217 17.191985667683184 8.7217878233641404 8.0093162497505528 108.69597625732422 252.27847099304199 27.989078395068645 100.33474731445312 39.305604831315577 49.304769645445049 19.433770847506821 16.894356078468263 115.92057741712779 197.49799728393555 2208.8308720365167 205.89124398119748 245.79817906301469 3.0941674690693644 25.128047652542591 4038.8770958613604 8.3612289428710955 12.334568446502088 8.9323745509609562 525.54690144956112 237.54751305002719 379.93197123799473 8.6495742984116095 9.8726891232654435 11629.820402041078 10.311850356869401 10.540905849076806
leaf_count=1467293 47456 242 45 293 63719 8 1570 23 418 21 32 26 8 31 41 1 44 2033 2172 6848 2547 157 343 3967 54726 106 346 296 6299 1091 3496 23 799 2899 2 30 894 27 27 14 18 22 25 46 18402 45 2 16 276 35 247 57 40 203 21 22 15 6737 17 2 34 307 49 5 2 68942 485 139 20 46 25 51 734 8 602 21 38 28 26 36 149 69 13 1303 13 21 58 12 123 7 22 33 9 21 34909 15631 2535 558 11 50526 1 58 104 46485 3878 22131 53 1396 89505 217 24
internal_value=-2.70604 -2.43725 -2.41752 -2.74431 -2.66904 -2.46742 -2.28235 -2.22893 -2.032 -2.45305 -2.24823 -2.41876 -2.37563 -2.45956 -2.3969 -2.32792 -2.25332 -2.74936 -2.72441 -2.24155 -2.74031 -2.54328 -2.08823 -2.75201 -2.72944 -2.69429 -2.15868 -2.70824 -2.66455 -2.49119 -2.65883 -2.29546 -2.29885 -2.17075 -2.54373 -2.0373 -2.06491 -2.36207 -2.45786 -2.52299 -2.47328 -2.41722 -2.35518 -2.18782 -2.66753 -2.6073 -2.43692 -2.28064 -2.34392 -2.48238 -2.47663 -2.41516 -2.53072 -2.48774 -2.16585 -2.40551 -2.28636 -2.73798 -2.59955 -2.57089 -2.27355 -2.17901 -2.63235 -2.46287 -2.21673 -2.75157 -2.70447 -2.20282 -2.44369 -2.2211 -2.66225 -2.60802 -2.44804 -2.56216 -2.53279 -2.57484 -2.13588 -2.11175 -2.15086 -2.67926 -2.63275 -2.4989 -2.67522 -2.3928 -2.08761 -2.36127 -2.68386 -2.0851 -2.6633 -2.71038 -2.33725 -2.41613 -2.72518 -2.18626 -2.7516 -2.75555 -2.74915 -2.68765 -2.10228 -2.7531 -2.70092 -2.16544 -2.75525 -2.74426 -2.7559 -2.75503 -2.73146 -2.427 -2.75553 -2.74033 -2.46291
internal_weight=135806 16923.9 15882.1 118882 7481.29 11601.4 4280.71 3074.98 898.553 10824.2 332.292 1205.73 1003.17 10491.9 1881.71 1139.85 559.773 111401 10683 340.137 10342.9 558.452 261.934 100718 13642.4 5776.38 146.192 5630.19 2804.29 968.428 707.672 1005.13 670.323 1935.13 117.422 260.756 171.571 571.447 1321.94 590.341 8610.15 1200.27 873.893 440.114 777.27 462.358 136.796 644.636 394.375 7409.88 6966.14 1064.47 332.844 5901.67 1919.05 731.597 226.05 1041.72 119.488 134.717 544.345 183.903 100.7 42.1985 22.7115 9784.46 848.914 78.6977 199.888 678.13 132.956 126.35 40.1432 31.7819 55.5704 103.124 1240.92 834.97 506.287 325.562 202.565 48.1823 154.383 16.7311 214.87 491.006 86.2072 214.065 66.9842 137.652 89.1735 36.3281 203.892 405.952 2825.9 87075.5 4539.48 274.02 28.2222 4265.46 226.587 20.6958 7866.03 534.479 82536 12286.7 256.07 18.5223 12030.6 400.785 20.8528
internal_count=2038134 83472 29262 1954662 64430 19926 9336 4051 711 1280 345 5285 2174 935 263 949 138 1890232 84560 9363 75197 3084 2515 1805672 151855 50540 4313 46227 11212 4913 3792 95 1424 3102 300 1121 1051 50 125 55 672 99 77 117 18646 244 191 625 599 573 538 88 750 450 203 70 61 54210 6754 854 52 583 298 249 244 72113 3171 624 83 69 667 852 743 742 642 146 134 92 54 53 3111 1639 1472 1316 45 43 109 56 125 156 75 55 45 42 35015 1653817 69320 3104 569 66216 15690 59 101315 46589 1584497 117204 5327 1449 111877 22372 241
is_linear=0
shrinkage=1


Tree=13
num_leaves=15
num_cat=0
split_feature=9 1 46 58 58 15 24 1 19 35 58 0 18 22
split_gain=272901 670775 171205 188021 166954 157643 40179.3 74470.5 10271.3 94114.4 16651.8 8072.76 4812.24 133.523
threshold=0.51555282118073131 -0.286983262409514 1.0000000180025095e-35 -0.46939275801982833 -0.46681171309487374 -0.27829528748937288 -0.11905123159256394 -0.43944191272786087 -0.055088993180171443 0.18117494583629762 -0.4709274333806121 -0.43367871406489961 -0.37556201843288683 -0.33877353298214991
decision_type=2 2 2 2 2 2 2 2 2 2 2 2 2 2
left_child=2 5 -1 6 11 13 8 -8 -4 -10 -11 12 -5 -2
right_child=1 -3 3 4 -6 -7 7 -9 9 10 -12 -13 -14 -15
leaf_value=-2.775414365718281 -2.0484646742661035 -2.775410172108479 -2.7754055814386103 -2.0228926240850611 -2.7753709674044704 -2.7753517103017589 -2.0138391433554581 -2.7753449410356255 -2.7754008935169479 -2.0479956617658273 -2.7748646771233538 -2.774077263480633 -2.7731377365828984 -2.0146107434965779
leaf_weight=102116.83694361337 610.32313076965511 10670.251066620462 5387.473345589824 2359.765200022608 1138.105495271273 790.85426420439035 582.55166322924197 714.21441139373928 3578.2131588691846 609.9292950714007 90.323364432901144 36.857664629817009 21.444071983918548 4668.6441919989884
leaf_count=1725141 46 70042 59146 59 81542 55866 3 3853 30627 410 55 6768 3920 656
internal_value=-2.72548 -2.53669 -2.75257 -2.59192 -2.27603 -2.11707 -2.69441 -2.43313 -2.72947 -2.67164 -2.14176 -2.04103 -2.02967 -2.01846
internal_weight=133376 16740.1 116636 14518.9 3556.17 6069.82 10962.7 1296.77 9665.94 4278.47 700.253 2418.07 2381.21 5278.97
internal_count=2038134 126610 1911524 186383 92289 56568 94094 3856 90238 31092 465 10747 3979 702
is_linear=0
shrinkage=1


Tree=14
num_leaves=88
num_cat=0
split_feature=59 14 15 22 20 20 19 24 19 24 24 20 24 24 19 24 19 4 6 19 24 19 20 16 24 19 21 20 19 19 19 16 24 24 16 24 24 19 19 17 19 24 19 24 20 24 19 24 24 24 24 20 22 19 14 34 19 58 58 58 59 58 24 34 58 59 19 19 59 59 16 9 5 13 17 17 6 59 4 19 59 27 21 19 19 15 59
split_gain=825140 54505.3 42271.1 16591.9 8595.26 7255.38 6981.46 9091.63 6604.49 4883.04 4272.49 3823.95 7059.7 2908.54 2654.99 4331.46 2589.58 2311.04 48716.7 2185.65 3092.08 3135.72 1989.47 1860.96 1823.9 1614.39 1603.15 3669.04 3852.82 1552.26 3896.57 1402.63 1229.95 1212.93 997.522 896.181 1407.2 834.009 1122.94 1400.31 798.867 786.405 785.543 1089.37 781.254 766.934 761.306 649.758 1223.52 381.215 339.16 780.737 2715.55 296.128 277.087 390.749 13436.5 6121.45 1417.96 7388.57 2921 1348.1 788.538 1157.67 933.67 494.045 263.071 1013.16 200.922 3238.47 493.408 148.567 2528.41 5888 511.27 3172.52 3186.07 1574.19 877.435 3331.58 569.615 2922.3 653.046 84.7198 24.0288 499.923 2377.24
threshold=2.9519164897115808 -0.057511767302491239 -0.27830036113819762 -0.3224189746305467 -0.25484673149683307 -0.25972020171494098 -0.055082907377655595 -0.11899303934560954 -0.055087978879752142 -0.11900048795321974 -0.11900048795321974 -0.27888559462182111 -0.11901189363362273 -0.11900607440892734 -0.055090007480590744 -0.11901189363362273 -0.055077497775419239 1.5192170083727565 0.53738199262962894 -0.055071073872763589 -0.11901189363362273 -0.055061268968710192 -0.26093774626202665 0.084483143100360064 -0.11900607440892734 -0.055080878776816944 0.022356749894155554 -0.26448363472093528 -0.055065326170387494 -0.055078173975698794 -0.055078850175978293 0.084483143100360064 -0.11901189363362273 -0.11901189363362273 0.084483143100360064 -0.11898733650540803 -0.11876329635463344 -0.055068369071645397 -0.055076483474999889 0.066206848478904859 -0.055082231177375991 -0.11900048795321974 -0.055073440573741993 -0.11900607440892734 -0.25354837581184075 -0.11872547139411309 -0.055067016671086343 -0.11887828423461544 -0.11742760971028848 -0.11901782924281214 -0.11901189363362273 -0.27183659919489189 0.051297996486546905 -0.055072426273322692 -0.057511767302491239 -0.24764223246427244 -0.055026106554174038 -0.38924084940434761 -0.46492824787936632 -0.46374236237330607 -0.20652775625386346 -0.38665980447939302 -0.11910825999457934 1.3692395466009988 -0.38313702694668478 -0.20333615481517389 -0.055067016671086343 -0.055063297569548843 -0.20534568164694136 -0.20522747418624918 -0.28798164380529934 0.38304612292205775 -0.0019207145672397996 1.9561017390483291 -0.16476568480379097 -0.17522807150287506 0.34201115054440301 -0.20652775625386346 -0.018107442465254496 -0.055072426273322692 -0.20440002196140378 0.069500840463577712 -0.2724319954298719 -0.055068369071645397 -0.055086288379053293 -0.17952229709557752 -0.20735520847870897
decision_type=2 2 2 2 2 2 2 2 2 2 2 2 2 2 2 2 2 2 2 2 2 2 2 2 2 2 2 2 2 2 2 2 2 2 2 2 2 2 2 2 2 2 2 2 2 2 2 2 2 2 2 2 2 2 2 2 2 2 2 2 2 2 2 2 2 2 2 2 2 2 2 2 2 2 2 2 2 2 2 2 2 2 2 2 2 2 2
left_child=17 2 4 -4 5 10 8 11 9 -5 19 12 23 14 49 -16 -15 54 -19 29 21 -21 -23 -8 34 -9 27 33 -29 30 40 -26 46 -13 -14 -12 -37 38 -18 -40 -2 42 -34 -44 -39 -38 53 -27 -49 -6 -10 52 -52 -7 55 -1 58 -58 68 60 -60 -59 -61 -64 -65 -62 -46 -68 84 70 -70 -56 74 -74 75 80 77 -77 79 -76 -73 -82 -83 -45 -57 -86 -87
right_child=1 -3 3 6 13 32 7 25 50 -11 35 26 24 16 15 -17 37 18 -20 20 -22 22 -24 -25 31 47 -28 28 -30 -31 -32 -33 41 -35 -36 36 45 44 39 -41 -42 -43 43 83 66 -47 -48 48 -50 -51 51 -53 -54 -55 71 56 57 61 59 62 65 -63 63 64 -66 -67 67 -69 69 -71 -72 72 73 -75 78 76 -78 -79 -80 -81 81 82 -84 -85 85 86 -88
leaf_value=-2.7552533399342503 -2.7544326965954298 -2.7552032779523525 -2.7550141341383716 -2.1435199775992202 -2.2587494651602813 -2.620661105349849 -2.4229663981292546 -2.750312336748947 -2.7547837018516041 -2.7540921026002549 -2.1204055816595169 -2.3139705023317436 -2.3089816440686013 -2.7546083806740178 -2.4955545022580372 -2.2341292171776019 -2.2437461068126456 -2.0146318967563355 -2.7552464404495729 -2.7548006253864696 -2.3386760864570348 -2.7526597007845433 -2.1467647507858585 -2.6070829295598976 -2.2581579025269489 -2.1410212910720596 -2.180561330700522 -2.4947664975835733 -2.2511133522743818 -2.6744102280347675 -2.1785824811956855 -2.4083574184436287 -2.552465829400997 -2.2706859652867317 -2.1756935483411484 -2.7523568285251883 -2.026066692275597 -2.4321897874369327 -2.7544165380019767 -2.3617460824528571 -2.534915217864973 -2.7547974228340841 -2.7112087362340382 -2.6152075116567675 -2.0278984352116614 -2.7450871262899339 -2.4585762234953044 -2.008961583403551 -2.7471187675066604 -2.0853227501076224 -2.7538844685140274 -2.7544405947520398 -2.0260666922755965 -2.541240130052473 -2.7552575679044038 -2.7552520315964411 -2.754166159030913 -2.0118207584550158 -2.7529146693373181 -2.7551799271982733 -2.0444186807776727 -2.7481275685912552 -2.7543065690050614 -2.2370472126250145 -2.751456189452183 -2.7388772608999754 -2.7496714713500712 -2.1127351763189997 -2.0710575320438869 -2.7551155690777818 -2.7410472565705661 -2.7552110760648625 -2.7546932185670721 -2.0189481042105868 -2.7545953945906767 -2.7500314566509712 -2.7540821741417973 -2.0245442470340036 -2.7552548940349841 -2.0264745431173035 -2.7547941822411146 -2.026066692275597 -2.7431832100257103 -2.5700269168909613 -2.7552370278202836 -2.2518984020561197 -2.7548697977818519
leaf_weight=10230.252733640373 60.07314947526902 909.51425686478615 204.36075485218316 141.3352697500959 57.750781127251685 214.37846660614014 260.61403292510659 9.6104156672954542 104.87891387939453 42.381357112899423 113.39265060424805 2490.0217952728271 291.13324236962944 76.44892277661711 333.59632297605276 304.74323555082083 27.771107447333634 233.80454356316477 4241.5015464797616 108.77615261077881 416.06157875061035 18.743600705638528 47.030539512634277 292.28181266784668 232.22581428475678 423.2748556137085 326.61699771881104 443.61420631408691 257.65810775756836 178.36669059842825 74.729507446289062 499.73554229736328 356.04714488983154 5132.467291533947 298.91802978515625 16.734792709350586 19.331571578979496 89.022898700088263 58.910275277681649 36.248584016226232 130.7590913400054 108.0167003525421 328.92523670196533 206.01107025146484 19.381514319218695 4.4163815369829527 194.46983528137207 212.64728736877441 5.6435296470299354 107.42837969958782 35.900132110342383 60.658271186053753 19.331571578979492 269.77640247344971 75842.031307836995 8071.5128276534379 45.289319399744272 96.757743375375867 20.837221066467464 638.13126419391483 60.530696102418005 6.5126784229651085 52.04515066742897 27.40564791765064 12.652160860598086 2.5526289455592623 8.4506342550739664 22.006607503630221 20.635632018558685 350.02734452951699 3.0187611877918235 1060.0487038120627 88.003083030693233 38.779676218517125 74.941381484270096 9.0670951232314092 42.019345560111105 39.080497996881604 14997.995870189741 19.342669965699315 107.25898168142885 19.331571578979496 3.6411957815289488 233.71003818511963 2358.4317727629095 28.228979537263513 128.23717095050961
leaf_count=63373 145 39440 31985 13 48 23 26 225 14 4606 7 198 24 1218 33 23 15 341 5829 13 34 364 3 31 21 27 22 44 19 21 5 44 36 389 20 2 1 36 68 27 14 1383 38 22 10 734 18 11 1017 9 442 383 1 27 1569347 54550 4020 23 3755 36942 460 882 8610 1456 2280 460 16 53 236 21936 544 53726 12845 23 93 95 2108 24 81307 3 16658 1 265 24 12325 71 74
internal_value=-2.70525 -2.37872 -2.35736 -2.30864 -2.49277 -2.53603 -2.30075 -2.29336 -2.50531 -2.28426 -2.43902 -2.30463 -2.36972 -2.37546 -2.3236 -2.37044 -2.49912 -2.75173 -2.71648 -2.47583 -2.41276 -2.59004 -2.31886 -2.52008 -2.30694 -2.11173 -2.29055 -2.2949 -2.40495 -2.56003 -2.4835 -2.3604 -2.59642 -2.2848 -2.24102 -2.19321 -2.4024 -2.42446 -2.52094 -2.60409 -2.6041 -2.62627 -2.61389 -2.64245 -2.34019 -2.15888 -2.54232 -2.1021 -2.02821 -2.14428 -2.6899 -2.63101 -2.49578 -2.57623 -2.75311 -2.74808 -2.74191 -2.27018 -2.74789 -2.68425 -2.24137 -2.05848 -2.7354 -2.5991 -2.39871 -2.07296 -2.18071 -2.28813 -2.75261 -2.71648 -2.15657 -2.75432 -2.75 -2.52803 -2.75172 -2.72135 -2.43627 -2.16074 -2.7543 -2.60269 -2.74307 -2.64464 -2.13918 -2.59101 -2.75389 -2.74949 -2.66313
internal_weight=135906 16936.3 16026.8 11785.3 4241.51 3099.75 11580.9 11176.5 404.486 183.717 1188.42 10525.3 1874.91 1141.76 803.519 638.34 338.241 118970 4475.31 1034.54 590.612 174.55 65.7741 552.896 1322.01 651.176 8650.38 8323.76 701.272 443.928 265.562 731.961 1911.33 7622.49 590.051 153.875 40.4827 261.792 122.93 95.1589 190.832 1232.71 1124.69 768.646 138.862 23.748 678.625 641.566 218.291 165.179 220.769 115.89 55.2317 484.155 114495 22153.1 11922.8 148.56 11774.2 814.155 83.9205 103.27 730.234 92.103 40.0578 63.0833 49.8388 30.4572 10960.1 373.682 23.6544 92341.5 16499.5 126.783 16372.7 1280.45 90.1669 48.1476 15092.3 94.2841 1190.28 130.232 22.9728 439.721 10586.4 2514.9 156.466
internal_count=2038134 83472 44032 39562 4470 2914 7577 2118 5459 4619 1343 838 166 1556 113 56 1443 1954662 6170 599 414 380 367 57 109 1280 672 650 63 185 164 65 1571 587 44 744 737 225 110 95 159 1503 120 84 115 735 68 1055 1028 57 840 826 443 50 1948492 211997 148624 4925 143699 53963 4675 905 49288 12346 3736 920 79 69 89736 22716 780 1736495 167148 12868 154280 72877 2227 119 81403 96 70650 16924 266 46 67020 12470 145
is_linear=0
shrinkage=1


Tree=15
num_leaves=75
num_cat=0
split_feature=11 58 59 58 28 61 50 58 58 9 29 5 21 54 14 35 65 3 34 18 9 40 16 41 58 14 59 58 35 12 5 5 5 36 5 24 59 13 59 35 59 58 59 58 7 40 13 58 3 54 15 55 58 34 14 24 18 35 15 24 61 18 21 14 11 50 50 38 16 65 14 50 14 34
split_gain=397096 49510.5 39148.7 24555.6 41569.7 13498.8 37254.2 12577.1 10902 10577.1 8932.81 8627.7 5761.99 3940.78 3403.47 3152.47 3045.25 30723.9 5756.99 2651.73 8437.85 11054.8 5553.21 2542.26 3018.55 2508.57 1241.81 1185.85 990.333 866.813 482.676 401.581 371.258 370.514 1205.73 318.599 280.883 228.778 198.952 211.667 196.643 190.704 178.796 156.089 577.373 140.904 140.4 117.793 112.54 103.619 92.5099 89.8109 89.7127 87.5795 73.2642 71.2959 64.0521 3595.95 60.0708 49.1583 42.4469 32.4468 32.3953 28.8481 28.691 17.7657 91.7531 11.5946 5.19166 2.90963 1.85913 1.51775 0.797113 1.34695
threshold=-0.37913572393933298 1.5527861827111227 3.2022798914576773 -0.47162501309005916 -0.27304340047053705 0.0026156285174509003 -0.56493390227996632 0.084276257368396515 -0.47106694932250154 1.0421489306187508 -0.11642076587448773 0.0069655674170970511 -0.27407807666271627 -0.0079025553979830982 -0.057415969430802093 1.2826461212468685 -0.077537851070619793 -0.0022128807607967494 -0.25793464477913919 -0.35770966474280458 -0.20307581781477432 0.70627042262681761 -0.28325820896922232 1.0000000180025095e-35 -0.47483387975351626 -0.057511305029380989 -0.20747341593940119 1.5438571624301989 -0.18310753021639245 3.3247989298856582 -0.0023343739302118497 -0.0071305408649371986 -0.0071313859300300994 -0.63666407104793155 -0.0072368078003687492 -0.11902376485200143 -0.20735520847870897 1.4425571926627929 -0.20747341593940119 -0.18298784144086191 -0.20735520847870897 -0.46960203193266242 -0.20640954879317128 -0.47483387975351626 -0.10315391493043444 -0.015622659240565448 -0.39553009951110835 -0.46939275801982833 -0.0099307311840878976 0.0049120325585203005 -0.27830236369618527 -0.050434294237748097 -0.46374236237330607 -0.24905168813458417 -0.057134305523262791 -0.11902818746277004 -0.33611168582517231 -0.18299927608043642 -0.27633269813935574 -0.11872547139411309 0.0026265483160752504 -0.37532541045906848 0.18397796184720569 0.34454038275918691 -0.47374373666893149 -0.21395187321568573 -0.21690299797294496 0.59688459575489883 -0.28798863387662238 1.8954293170633949 0.41932208285335387 -0.57106557047645323 0.05835738280803076 -0.19858019697374751
decision_type=2 2 2 2 2 2 2 2 2 2 2 2 2 2 2 2 2 2 2 2 2 2 2 2 2 2 2 2 2 2 2 2 2 2 2 2 2 2 2 2 2 2 2 2 2 2 2 2 2 2 2 2 2 2 2 2 2 2 2 2 2 2 2 2 2 2 2 2 2 2 2 2 2 2
left_child=1 2 3 4 12 6 13 8 35 16 11 -10 43 41 -12 29 19 18 27 20 22 -22 -7 24 -14 -11 69 -18 52 51 -20 32 -19 -4 -35 -8 38 65 39 -25 -28 48 68 64 55 63 47 -43 62 -33 -42 -9 71 67 -37 -45 57 -21 61 -58 -3 -26 -5 -2 -1 66 -27 -47 -17 -6 -65 -15 -55 -74
right_child=45 60 33 5 26 9 7 15 10 25 14 -13 23 28 -16 42 17 31 30 56 21 -23 -24 36 58 37 40 -29 -30 -31 -32 49 -34 34 -36 54 -38 -39 -40 -41 50 46 -44 44 -46 53 -48 -49 -50 -51 -52 -53 -54 72 -56 -57 59 -59 -60 -61 -62 -63 -64 70 -66 -67 -68 -69 -70 -71 -72 -73 73 -75
leaf_value=0.35603615717669607 0.35506784879800235 0.35580841438013022 0.35460281983962844 0.51026209852675553 0.3457590199480986 -0.037712064017028833 0.35447386552776972 0.47038650882470173 -0.020028307101687761 -0.048959280545657166 0.38438987450758727 0.37580994145769658 0.35575205005489269 -0.048698659772463758 0.017529939574455925 0.0037899730645139136 0.23922162172313627 0.39847163649498357 0.3535899546257999 -0.046804659595512194 0.30196961084754065 -0.049212430153664471 0.14164542541979486 -0.03960310244628136 -0.0068195815454637227 0.35357979505773146 -0.049781700864347744 -0.047479825070202562 0.36872715883491058 -0.044591635283703523 -0.043927521388407553 0.44905030237501586 -0.042165347233709481 -0.047509536568012739 0.35572592914004292 0.30004566861357523 0.32159159753692967 -0.013807218067338617 -0.049379445550098378 0.3300270995500032 -0.034154621013504902 0.12983659231072109 0.3161195188117964 0.35643762745778484 -0.041199183432937658 0 0.61532287616646786 0.3626530345831831 0.35834407096257781 0.35778689216431908 0.32596425475985941 0.38733789949256514 0.27777783320836841 -0.03210351462508456 -0.038617342520707483 -0.010720933291043313 -0.048952892235722544 0.47707799860832473 -0.045839745922855689 -0.04458485785421902 0.1621151342143842 0.2722069411651506 0 0 0 0.36620559755713011 -0.023822473974724069 0.30610578627121576 -0.038609332414926069 0.0015115684247899259 0.14819437097747062 0 0.04401293657018699 -0.020089139404608779
leaf_weight=1121.1565556409769 7441.8622400588356 866.33773503219709 642.16865586303174 47.687096636276692 19.65572629310191 21927.018610674888 205.56273392541334 67.193099618889391 30123.040354073513 46.681414842605591 190.30454148119316 137.78446228243411 162.40512238582596 77.950831244699657 94.841055324301124 7.0951278721913686 35.773369436617941 7.2373253339901575 98.974140325561166 2707.7760808733292 437.33634544024244 458.57947524311021 439.69167685834691 7.5941183026880026 1.5213214047253134 4.1372471647337079 2038.6765229851007 5904.7408628398553 17.708521599881351 10.65224889712408 8.038910508155821 44.869748828932643 12.067750218324363 25.494985845405608 65.434162388090044 1.5262427856214342 5.3340270980261257 3.9505271748639634 144.99725364521146 7.0017914725467545 2.4154235795140266 6.5405397643335155 3.4131186003796747 42.639072189573199 12.043059739284216 0.31002809293568123 6.2668470232747486 625.15592180518433 29.165057646110654 465.56503352569416 4.645503766834735 162.82807059306651 1.6606856752187003 2.2928068637847883 6.8238307526335102 1.1982288174331177 50162.115200406406 32.652118041180074 67.372661051340401 7638.2823176365346 4.5079259518533936 1.8622581562958647 0.32961595756932993 0.3416181225329632 0.44180331379175086 199.04823253909126 2.1942005045711985 4.099651038646698 50.156113443896174 0.2125959349796166 2.3028790690004826 1.0344809410162259 0.85954259522259269 1.3181117810308931
leaf_count=110729 732921 85516 63210 6527 1940 174690 20264 8525 385043 38 20211 14300 16070 1503 1786 100 2794 841 9760 2481 37473 8995 20557 137 15 454 39448 6390 1851 116 7 5483 13 347 6502 172 527 30 2807 693 35 311 348 4261 22 6 1085 62758 2943 46192 470 17341 172 1 11 5 70714 4248 216 14273 288 185 8 9 8 20179 6 400 134 10 145 32 37 15
internal_value=1.60929e-05 -0.0206809 -0.0232604 -0.0253783 0.102569 -0.0291817 -0.00119368 -0.00994483 -0.0130971 -0.039024 -0.0155915 -0.018219 0.295967 0.332715 0.262702 0.311236 -0.039934 -0.00716824 -0.0391664 -0.0425052 -0.0281534 0.12226 -0.034182 0.131197 0.237296 0.281585 -0.0449715 -0.0457291 0.0354868 0.392281 0.32343 0.357769 0.127653 0.340938 0.242751 0.342186 -0.0189096 0.355357 -0.031415 0.141114 -0.0488389 0.373504 -0.0104636 0.351572 0.262351 0.354759 0.36341 0.360387 0.453743 0.36629 0.205355 0.412674 -0.0392003 0.140034 0.0339137 0.34583 -0.0480192 -0.0404676 -0.0348324 -0.0483765 0.354928 0.155588 0.506882 0.355002 0.355876 0.362596 0.226958 0.286147 -0.0329346 0.34343 0.134527 -0.0478848 -0.013348 0
internal_weight=135210 127757 126886 126153 3641.17 122511 31874.7 31061.2 30759.9 90636.7 30546 30260.8 1575.57 813.5 285.146 301.338 90380.7 6577.27 6047.53 83803.5 23262.6 895.916 22366.7 398.089 233.161 256.012 2065.61 5940.51 98.3545 240.673 107.013 529.74 19.3051 733.098 90.9291 213.913 164.927 209.33 159.593 14.5959 2045.74 715.145 60.6644 1177.48 55.8804 7453.39 637.963 631.696 77.1818 510.435 7.06093 230.021 80.646 8.88014 8.35007 43.8373 60540.8 2740.43 70.7562 57800.4 870.846 3.38358 48.0167 7444.51 1121.6 205.38 6.33145 4.40968 57.2512 19.8683 2.6445 78.9853 4.47046 2.17765
internal_count=2038134 1304600 1218796 1148737 177578 971159 545541 468351 441787 425618 421340 399343 135675 77190 21997 26564 404911 71480 18951 333431 241715 46468 195247 20650 16486 20707 41903 9184 3558 25982 9767 52529 854 70059 6849 20447 4164 20669 3637 830 39953 73632 582 115025 4288 733534 64154 63069 9478 51675 505 25866 1707 459 183 4266 91716 6729 416 84987 85804 200 6535 733075 110737 20639 460 406 234 1950 154 1535 53 52
is_linear=0
shrinkage=0.05


Tree=16
num_leaves=19
num_cat=0
split_feature=0 59 29 52 58 32 0 0 59 19 59 16 32 19 27 27 49 49
split_gain=630767 98873 156636 26424 9263.79 7294.67 12981 4421.22 1520.39 904.446 626.58 422.824 319.844 239.56 349.208 138.941 41.9378 110.297
threshold=-0.29201816103734063 -0.20735520847870897 -0.11645182212781814 -0.49564451676652138 -0.47106694932250154 0.0012091030822267501 -0.34207392702313572 2.5260667582077487 1.7069555137012493 -0.037986197609860592 -0.22402246043631022 -0.27733279186054993 0.0012125679509114001 -0.055020358851797943 0.49720522789035437 0.58204889129520687 1.201813722397076 2.6740245131517315
decision_type=2 2 2 2 2 2 2 2 2 2 2 2 2 2 2 2 2 2
left_child=5 2 9 -3 -5 6 -1 8 11 -2 -11 16 -13 14 -4 -16 -6 -18
right_child=1 3 13 4 7 -7 -8 -9 -10 10 -12 12 -14 -15 15 -17 17 -19
leaf_value=-0.049677985255401631 -0.049754959071121443 -0.049648831764021517 -0.04492309466934899 -0.049425384552328484 0.3534781628429664 -0.049767610215556916 0.34642361289831541 -0.049047261415925691 -0.047739367945428574 -0.046813599621218151 0.35457382553197769 0.30877117114604741 -0.045937713245624914 0.35441685456799021 0.3449929663575716 -0.033163908529109942 0.31703097278340442 -0.031278693991233855
leaf_weight=571.88439590297639 5711.6957409195602 439.01957414206117 9.194854053668676 146.90349488426 12044.659342704341 111691.88889193628 323.37614293955266 68.902132272720337 23.524358036462218 16.223988363984972 23.0232487404719 12.753643502481284 11.789941984228788 4173.6042298334651 23.576317951548848 2.4764569299295536 90.185133169870824 2.1098572271876028
leaf_count=109245 247850 84646 576 28298 12544 1526787 1194 13264 4488 3098 10 187 2193 1461 13 465 1450 365
internal_value=-6.10717e-05 0.239762 0.121527 0.331466 0.344962 -0.0486279 0.0934831 0.349694 0.351952 -0.0481014 0.189518 0.35273 0.139867 0.35329 0.216012 0.308158 0.353152 0.308674
internal_weight=135387 22799.6 9959.79 12839.8 12400.8 112587 895.261 12253.9 12185 5750.94 39.2472 12161.5 24.5436 4208.85 35.2476 26.0528 12137 92.295
internal_count=2038134 400908 253473 147435 62789 1637226 110439 34491 21227 250958 3108 16739 2380 2515 1054 478 14359 1815
is_linear=0
shrinkage=0.05


Tree=17
num_leaves=37
num_cat=0
split_feature=61 6 55 50 11 16 1 66 1 26 26 55 22 35 33 33 19 34 3 17 34 1 46 50 66 3 20 46 24 19 19 19 50 24 65 65
split_gain=334171 364133 253919 1603.14 423.386 105.77 122.888 212.537 100.398 42.29 54.494 25.0257 131.47 85.3609 25.9757 22.2422 15.4357 10.343 7.26522 6.82916 6.39531 5.33645 4.18119 3.90248 7.23477 12.1009 2.75255 1.83664 2.04402 3.42896 2.79063 11.212 3.24734 1.62246 1.34384 0.94654
threshold=0.0026119885845761006 -0.25945194187511361 -0.050058699377979889 -0.56035174017535716 18.615242216387749 0.27141173668708524 -0.081606451284675793 -0.12281531561764439 -0.43942886421716804 -0.10692347402592059 -0.095784059646499539 -0.050434294237748097 -0.29929916502407689 0.20220614584018792 0.0016396321946842002 0.0016561004888370004 -0.054836770475902345 -0.25793748633331903 -0.0099307311840878976 -0.36296954621215216 -0.25793670073218372 -0.43844092253514716 1.0000000180025095e-35 -0.55585028151145799 0.43952559125561419 -0.0099307311840878976 -0.43143365106788528 1.0000000180025095e-35 -0.11910802722559144 -0.053895499686780195 -0.055101502885342997 -0.055067016671086343 -0.55412860807881659 -0.11527921014497804 1.0000000180025095e-35 0.024399844328738454
decision_type=2 2 2 2 2 2 2 2 2 2 2 2 2 2 2 2 2 2 2 2 2 2 2 2 2 2 2 2 2 2 2 2 2 2 2 2
left_child=1 2 4 18 5 11 7 17 19 -10 -11 27 13 16 -14 -15 26 -7 -4 -5 22 -18 -19 34 -25 -26 -13 28 30 -30 32 -32 -1 -31 -8 -36
right_child=-2 -3 3 8 -6 6 23 -9 9 10 -12 12 14 15 -16 -17 21 20 -20 -21 -22 -23 -24 24 25 -27 -28 -29 29 33 31 -33 -34 -35 35 -37
leaf_value=-0.037101503236815832 -0.049767452558578368 -0.049759704278268257 0.076491852311945566 -0.027158157426963415 0.32596248927188592 -0.043308322642030224 -0.047613127016085964 0.34336407838811361 0.3552759923353353 0.29114684149978087 -0.029040746356016812 0.034488428965930004 0.30524062711630218 0.27901025564991783 -0.005272272070180075 -0.0067632707067908533 0.10456778877033135 0.12139331282834552 -0.047787338116406612 0.11241153214319775 -0.020854168985881487 -0.013577468998396576 0 -0.038197979653196816 0.18032493437322261 -0.020140838179588377 -0.04654224676004004 -0.049705102308806919 -0.049574380546418835 -0.030132291010345272 0.011554150513475511 -0.047519655503467761 -0.048045184316617612 -0.046016509511603611 0.048735672044405487 -0.019243294908101668
leaf_weight=141.90904287481681 96667.173350048251 16934.955870646052 0.64717912673950451 1.653334853705019 7.0849011247046283 7.0479913377203056 21.690383533481516 6.5836751461029044 16573.096723936033 2.7112237215042114 1.9036060054786492 0.36594204138964315 3.0080241537652905 2.1667307186871763 0.62024131743237365 0.65997601766139258 1.8752694376744332 2.0704965065233418 24.558985100593418 0.84722825651988287 1.2197444443590946 0.87641767645254631 0.46719453716650594 3.7583294985815874 0.7744825561530887 1.1849017888307569 105.93401283957064 3501.7294581173919 924.10166108887643 54.182673133444041 11.43030298501253 21.634836515877396 281.04016359522939 50.839761533308774 0.24222460528835554 1.1295876754447816
leaf_count=14185 1039605 662953 5 289 90 1318 1868 175 92484 17 347 38 83 27 118 127 64 230 2129 53 230 157 86 700 38 231 7498 85067 73465 9468 1781 4069 29434 9528 17 160
internal_value=-6.25234e-05 0.124105 0.259409 0.354575 -0.0471052 -0.0476551 0.0270983 0.130424 0.355181 0.355229 0.164255 -0.048339 -0.0247231 -0.0349972 0.251894 0.213785 -0.0426203 -0.00655554 -0.0421981 0.0226502 0.0535012 0.0629484 0.09502 -0.0356392 0 0.0694831 -0.0458691 -0.0488784 -0.0468963 -0.0484611 -0.0432609 -0.0264857 -0.0444805 -0.0382401 -0.0446367 0
internal_weight=135363 38696 21761 16605.4 5155.63 5148.54 46.169 17.3891 16580.2 16577.7 4.61483 5102.37 115.507 111.878 3.62827 2.82671 109.052 10.8054 25.2062 2.50056 3.75744 2.75169 2.53769 28.7799 5.71771 1.95938 106.3 4986.87 1485.14 1029.12 456.014 33.0651 422.949 105.022 23.0622 1.37181
internal_count=2038134 998529 335576 95324 240252 240162 5053 2039 93190 92848 364 235109 8112 7911 201 154 7757 1864 2134 342 546 221 316 3014 969 269 7536 226997 141930 92461 49469 5850 43619 18996 2045 177
is_linear=0
shrinkage=0.05


Tree=18
num_leaves=40
num_cat=0
split_feature=27 52 19 20 46 6 13 66 58 3 5 24 58 58 24 5 58 58 24 34 39 58 58 26 66 23 26 13 13 23 10 10 52 5 5 25 23 50 38
split_gain=202111 321479 208197 91630.2 31975.6 15261.1 17698.1 10935.8 20745 3357.78 2564.11 1166.77 11500.8 1556.77 474.183 890.779 186.457 5876.19 1678.97 161.737 1010.62 116.962 448.526 94.853 86.7499 487.76 64.2645 1186.91 63.5425 41.5542 38.4831 34.1511 28.2066 208.01 45.6971 27.3522 22.4208 0.800838 3.27401
threshold=1.0000000180025095e-35 0.60773981969031654 0.98534944078800035 1.3888694355665134 1.0000000180025095e-35 0.53738199262962894 1.4425571926627929 3.8891488409605195 -0.46771856671715512 -0.0012481494578853998 -0.0055274523837154999 1.0000000180025095e-35 -0.46771856671715512 -0.45885930440717587 -0.11903237730455074 -0.0057408313196714491 -0.47162501309005916 -0.47483387975351626 -0.11902818746277004 -0.25793215715523438 1.2071760131874929 1.5438571624301989 1.4096079473470897 0.080304069902511058 -0.13692744392151207 -0.19641884204517693 0.176526396880088 1.6960208830156527 0.94224072377135559 -0.21983241813733786 1.039870175720677 1.0393566899863982 0.44133478110510643 -0.0057408313196714491 -0.005756465023889999 0.11537580001507591 -0.24045802850946907 0.40954621320701273 0.48533958945147299
decision_type=2 2 2 2 2 2 2 2 2 2 2 2 2 2 2 2 2 2 2 2 2 2 2 2 2 2 2 2 2 2 2 2 2 2 2 2 2 2 2
left_child=2 28 7 5 24 9 10 11 -9 14 -7 16 -13 -14 19 -16 17 -1 -19 21 -21 22 -3 -12 25 29 -18 -28 32 36 31 -30 37 34 -34 -25 -4 -2 -39
right_child=1 3 4 -5 -6 6 -8 8 -10 -11 23 12 13 -15 15 -17 26 18 -20 20 -22 -23 -24 35 -26 -27 27 -29 30 -31 -32 -33 33 -35 -36 -37 -38 38 -40
leaf_value=-0.049750621525126201 -0.049566603743010196 -0.044829096841747712 -0.0196763260963226 -0.049732734316715099 -0.049675759854745892 0.35229952771247047 0.35529770177940617 -0.049706306660088559 0.35345348310273428 -0.048884683024422761 -0.049676103788256529 -0.04974287201634213 0.35197311144209348 -0.048108256281267296 0.34781194274068694 -0.047631442978574814 -0.049718813707590778 -0.048368921891645246 0.33835089795075363 -0.047142181363971629 0.35341387218331877 0.35495888432397704 0.35163743420220961 0.28884529934450698 0.35497596931027769 -0.045639371193645778 -0.049610915347570853 0.38051503512063112 -0.011973696433783231 0.34845234077135423 -0.029997419395162296 0.32812686061281054 -0.014559849991818625 -0.048572213929611779 0.34033800442346457 -0.011217121907273406 0.21016368408884639 -0.03105412406091812 -0.049268946184647569
leaf_weight=4775.8040023166686 14181.606971822213 9.1387140280567092 1.1406512283720065 1786.3997600320727 561.79474354814738 42.410891869105399 624.86238649953157 903.54848525859416 492.6213131537661 51.939893370959908 580.76956004928797 2303.3343443786725 221.02865730738267 27.065021556802094 40.601533340290189 21.466572831384838 92983.872298644856 35.602940307930112 128.2712836205028 18.46487830625847 98.586163424421102 11025.096546780784 28.910444736480713 2.1831562519073482 3812.8577621299773 9.142705026548354 307.10494583565742 16.4149409532547 0.81707049533724707 65.61710009817034 2.0164446863345802 1.91271220613271 0.91202730312943447 40.79614013293758 4.167818969115614 0.79266969067975868 2.9919439172372222 50.989926460199058 99.622953603044152
leaf_count=834201 133294 613 206 57182 4364 28 313 5948 435 5954 4967 28730 670 2989 44 286 909517 4603 388 67 48 5383 13 1 1878 1479 5684 8 152 115 381 3 167 7824 19 150 89 768 19173
internal_value=-5.90899e-05 0.117684 -0.0317615 0.285279 0.302869 0.332986 0.167151 -0.046346 0.0926014 0.351344 -0.0207007 -0.0482713 -0.0148724 0.308218 0.353198 0.211359 -0.0491383 -0.0396343 0.254289 0.353973 0.290081 0.354634 0.256419 -0.0481214 0.353767 0.293166 -0.049641 -0.0271563 -0.0493159 0.337941 0.123978 0.232494 -0.0493792 -0.00943953 0.276545 0.211609 0.146052 -0.049505 -0.0433909
internal_weight=135363 28714.5 106648 14331.6 4453.54 12545.2 1251.02 102195 1396.17 11294.2 626.156 100798 2551.43 248.094 11242.3 62.0681 98247.1 4939.68 163.874 11180.2 117.051 11063.1 38.0492 583.745 3891.75 78.8924 93307.4 323.52 14382.8 69.7497 4.74623 2.72978 14378.1 45.876 5.07985 2.97583 4.1326 14332.2 150.613
internal_count=2038134 236830 1801304 75049 8131 17867 5459 1793173 6383 12408 5146 1786790 32389 3659 6454 330 1754401 839192 4991 6124 115 6009 626 5118 3767 1889 915209 5692 161781 410 536 155 161245 8010 186 151 295 153235 19941
is_linear=0
shrinkage=0.05


Tree=19
num_leaves=60
num_cat=0
split_feature=22 33 1 50 41 13 0 3 16 50 58 49 58 0 8 58 4 32 58 12 5 8 0 0 16 32 13 5 32 19 8 4 8 23 58 15 4 14 0 2 16 20 37 15 16 23 58 20 15 14 14 17 15 14 14 11 12 12 11
split_gain=405396 119666 104575 85840.9 32299.1 13539.3 7537.3 6214.91 47865 23883 8398.62 7012.34 30173.7 4655.75 3340.99 2639.49 1973.74 1463.87 1277.98 1123.8 37745.6 1030.53 486.12 298.995 215.193 1756.58 205.049 142.932 128.267 217.663 120.681 95.124 69.0574 152.609 53.5425 42.5007 37.7575 21.8921 11.7556 7.91561 4.9347 4.78314 3.61514 1075.95 22.7428 30.1812 18.5754 3.58475 6.89031 2.9278 6.61228 2.30903 1.68004 1.39168 1.01812 0.820787 0.0873395 45.7796 0.0618162
threshold=2.5085908584607735 0.0017274630968323 -0.43945745799230812 -0.57106557047645323 1.0000000180025095e-35 0.84437686856004701 -0.43685164786509206 -0.0099307311840878976 -0.28756951400172237 -0.57106557047645323 -0.46681171309487374 1.201813722397076 1.5438571624301989 -0.42060403857789957 -0.28109956517174783 -0.47002057975833073 -0.025420668285726245 0.0012108355165690503 -0.45627825948222134 2.112441070514818 -0.0023392330544960496 0.12381785614118417 -0.43789105721343097 -0.43789105721343097 -0.28473064328708036 0.0012139538983852503 6.4982943069620962 -0.0023392330544960496 0.0012110087600033001 -0.055020358851797943 -0.16906888126868594 -0.049235531854954745 -0.30180499227134422 -0.368670984709913 -0.47162501309005916 -0.27276814905674945 -0.051298236573549295 -0.057333901895315995 -0.41795080945187651 -0.0053396378066823992 -0.25143633865205645 -0.43140229485677123 -0.46834906581231167 -0.2783024836342049 -0.28798863387662238 -0.36878695717035859 -0.46995082178738595 -0.42906294275491813 -0.27805085694257525 -0.057156643086589992 -0.057167873807520746 -0.36290939535121364 -0.2781424583870889 -0.05727055277942044 -0.055525745770211243 -0.47374373666893149 1.8826538934980817 1.8893343921226746 0.23945512852342618
decision_type=2 2 2 2 2 2 2 2 2 2 2 2 2 2 2 2 2 2 2 2 2 2 2 2 2 2 2 2 2 2 2 2 2 2 2 2 2 2 2 2 2 2 2 2 2 2 2 2 2 2 2 2 2 2 2 2 2 2 2
left_child=2 14 3 6 7 -3 18 8 9 10 15 19 -13 -6 -2 35 -7 -17 23 42 30 -14 -19 -1 25 32 -16 -28 -12 -30 -21 -27 33 34 -10 38 -35 39 -4 -11 47 -37 43 -9 45 -45 -46 -26 52 50 53 -52 -49 -39 -23 -5 -44 -58 -57
right_child=1 5 4 55 13 16 -8 11 24 37 28 12 21 -15 26 17 -18 22 -20 20 -22 54 -24 -25 40 31 27 -29 29 -31 -32 -33 -34 36 -36 41 -38 49 -40 -41 -42 -43 56 44 46 -47 -48 48 -50 -51 51 -53 -54 -55 -56 58 57 -59 -60
leaf_value=-0.039986599462359912 0.36639770189120413 -0.04952763772402799 0.15997873088160011 -0.049743762164126556 0.35508399524349743 -0.048133943855519279 -0.049395038533780945 0.6675547247540069 0.21465198602650279 0 -0.049189512035390168 -0.049739758517745911 -0.046826961498081951 -0.0491879504705722 -0.049740244684961549 -0.047805740549623027 0.35524326754670377 -0.046592379401285272 -0.047379759522239093 -0.02866186158415612 -0.049757622176765499 0.14438747228564477 0.35475991743844937 0.35515766885486721 -0.049335910145467177 0.33821645510689263 0.32300462284165998 -0.039610951075754498 -0.044499775140412798 0.34655481663394366 0.35766650988136156 -0.026878619879586108 -0.049647054986459584 -0.035018035505379429 0 -0.046467023331171087 0.26972566515627561 0.0022396488417509349 -0.0137319717304011 0.21284539801827129 -0.04975471930733006 0 -0.049759495455613152 -0.023459797613022668 -0.04401900345041615 0.31509032442242146 -0.049462973962023461 -0.038626744377871336 0.076600274424590054 -0.049719059843721103 0 0.13688836872338145 -0.018815655926760953 -0.041611016538614695 0.35511716937611437 0.012549131839860879 0.13126207599091441 -0.049356095201594237 -0.0066807672150299971
leaf_weight=4.5841868873685589 48.925069791730493 212.06152847781777 3.1842016559094191 2430.2002122444101 593.70682568848133 30.19642442651093 120.84659085655585 4.7370009678415945 9.3564334665425104 0.41886847047135234 155.98413279931992 2383.3444892335683 16.18788335332647 80.664749343879521 2440.4298346331343 22.957690539304167 9916.981559580192 7.3638073028996578 19.66945839766413 1.8365381252951909 15934.276679112576 1.3784890328533936 1437.8653836976737 3306.1278929067776 96.218886987306178 33.822709126397967 5.7917352318763733 4.4160097017884237 8.9059155322611314 5.227570083923637 590.97057423461229 1.6742938370443869 417.06498117698357 65.913287909235805 4.0893559134565285 38.570588518865407 0.52048664540052314 1.0632394724525509 0.88120325980707903 0.5823314725421358 12362.477951053064 6.5936880796216419 56863.491284896154 1.3963631531223653 1828.5379780409858 0.50663632713258167 22276.972774184309 106.07218901487067 0.78611928410828014 699.59767109481618 0.22983758570626378 0.37185455299913783 19.535059251822531 5.5728653781116009 592.99836158845574 0.1532090874388804 3.0744774974882594 118.76087943837047 0.65772973420098424
leaf_count=105 549 9181 102 84882 6045 329 23171 95 271 64 12581 44694 2595 15420 14200 4223 99331 4 212 30 49524 114 15799 33409 9385 359 58 48 1699 67 5994 316 10059 4535 617 4413 8 161 164 8 54609 251 1314868 269 44763 12 84979 5644 27 64574 43 19 473 1038 5966 20 217 5448 93
internal_value=-5.43732e-05 0.269335 -0.0278509 0.177844 -0.0382104 0.345586 0.338134 -0.0402148 -0.0107541 0.194749 0.296977 -0.0447566 0.0306085 0.306689 -0.0405753 0.334316 0.354014 0.346389 0.352209 -0.0470682 -0.0351772 0.344074 0.352682 0.354597 -0.0482886 -0.0170615 -0.0487834 0.169273 -0.0359343 0.105331 0.356404 0.320167 -0.0414978 0.000784071 0.151546 -0.0250931 -0.0302599 -0.0489739 0.11947 0.139572 -0.049607 -0.0398189 -0.049491 -0.0488811 -0.0490368 0.103077 -0.049052 -0.0411977 -0.0346353 -0.0493747 -0.0118009 0.0979257 -0.0358307 -0.0314173 0.354792 -0.049727 -0.0497482 -0.044076 0
internal_weight=135347 12658.8 122688 5882.24 116806 10159.2 3451.23 116131 15512.9 2395.37 1687.53 100618 2993.91 674.372 2499.56 1517.42 9947.18 1468.19 3330.38 97624.6 16527.1 610.565 1445.23 3310.71 13117.5 532.442 2450.64 10.2077 170.118 14.1335 592.807 35.497 496.945 79.8796 13.4458 49.2297 66.4338 707.837 4.0654 1.0012 12585.1 45.1643 81097.5 24112.2 24107.4 1.903 24105.5 222.612 126.393 706.835 7.2378 0.601692 125.607 6.6361 594.377 2431.01 56985.3 121.835 0.810939
internal_count=2038134 123696 1914438 141892 1772546 108841 56897 1751081 191513 105210 39303 1559568 53369 21465 14855 24956 99660 20026 33726 1506199 55548 8675 15803 33514 86303 16165 14306 106 14347 1766 6024 675 15490 5431 888 4930 4543 65907 266 72 70138 4664 1450651 130118 130023 281 129742 15529 6144 65835 1261 62 6117 1199 6080 84995 1320533 5665 113
is_linear=0
shrinkage=0.05


Tree=20
num_leaves=41
num_cat=0
split_feature=16 16 14 36 49 26 3 8 5 59 15 14 8 49 49 6 10 65 69 19 20 0 6 59 20 6 8 39 35 39 15 15 6 6 19 6 6 19 24 8
split_gain=476513 188466 42034.7 35171.7 32801 19988.2 18735.8 6704.81 49679.9 6469.05 5725.64 4783.07 4371.58 1805.39 1660.28 8208.88 5736.49 1420.59 9323.45 1025.62 1445.8 982.566 949.35 932.99 818.323 414.437 245.953 7797.79 2282.83 458.841 206.484 234.051 154.058 179.33 149.002 1043.85 144.296 56.1448 18.8504 3.24535
threshold=1.9268556619192192 3.7899848659607738 0.77618357211992728 6.6551249998820685 2.6740245131517315 5.5831521410182878 -0.0070365372753536997 0.84632774004610078 -0.0072361740015490991 -0.20747341593940119 -0.27830250001481877 0.30055937353896717 5.9573832401386655 1.0000000180025095e-35 1.201813722397076 -0.2887575681878975 0.5587340427012929 -0.093325826610014484 -0.11867908736444559 -0.055092374181569141 -0.4313962917436695 -0.43685164786509206 0.19966953702516696 -0.20735520847870897 -0.43143362127576063 -0.029193449417526048 0.30378409731464268 -0.31066306008844063 -0.18310771583632912 -0.31263313679090621 -0.27829331945613073 -0.27829144209568663 -0.27759352006874177 -0.27898902608363624 1.0000000180025095e-35 -0.029193449417526048 -0.28596655615810856 -0.055096431383246394 -0.11905472312738123 0.0044931557242394006
decision_type=2 2 2 2 2 2 2 2 2 2 2 2 2 2 2 2 2 2 2 2 2 2 2 2 2 2 2 2 2 2 2 2 2 2 2 2 2 2 2 2
left_child=2 6 3 4 5 7 10 14 21 -6 13 19 -4 17 26 16 -16 18 32 37 -21 -9 -7 -11 -3 -15 34 29 -29 -28 -5 -32 33 36 39 -36 -2 -10 -19 -1
right_child=1 24 12 30 9 22 -8 8 11 23 -12 -13 -14 25 15 -17 -18 38 -20 20 -22 -23 -24 -25 -26 -27 27 28 -30 -31 31 -33 -34 -35 35 -37 -38 -39 -40 -41
leaf_value=-0.049497170608945137 0.13066013210402305 0.35199817828401991 -0.049090490430353885 0.35560938380602125 -0.049358051568249524 -0.046642588241182288 -0.049599082664849831 0.35257412965992224 -0.049755162908468986 0.35516379833626832 -0.049221115813459976 0.35040152849562517 0.35574762603152221 -0.048401969817306593 -0.049419221821159133 -0.04973180439674571 0.35673164418276793 0.33902996919980533 -0.049463795118350848 0.35496581956618095 -0.025793667438131575 -0.046717880122559258 0.35266373021864122 -0.046723026727452564 -0.049749489514205998 0.33248263760572905 -0.04347914298378977 0.32684271526778991 -0.048110896167349329 0.35512221639035635 0.33323147260184177 -0.044588326540986226 0.35491782329070881 0.24979135387051082 -0.039443367289604632 0.4805677139790856 0.35126518745149438 -0.0075183806182070366 0.35513296471446026 -0.048414558138283909
